/**
 * @file wavetables.h
 * @brief Pre-computed wavetable data for Vapo2
 *
 * Generated from PPG Wave 2.2 waveform data.
 * Original PPG waves: 64 samples, 8-bit unsigned
 * Converted to: 256 samples, 16-bit signed
 *
 * 16 Banks with 8 waves each:
 * - UPPER_WT: PPG waves 0-7
 * - RESONANT1: PPG waves 8-15
 * - RESONANT2: PPG waves 16-23
 * - MELLOW: PPG waves 24-31
 * - BRIGHT: PPG waves 32-39
 * - HARSH: PPG waves 40-47
 * - CLIPPER: PPG waves 48-55
 * - SYNC: PPG waves 56-63
 * - PWM: PPG waves 64-71
 * - VOCAL1: PPG waves 72-79
 * - VOCAL2: PPG waves 80-87
 * - ORGAN: PPG waves 88-95
 * - BELL: PPG waves 96-103
 * - ALIEN: PPG waves 104-111
 * - NOISE: PPG waves 112-119
 * - SPECIAL: PPG waves 120-127
 *
 * Each bank has 8 waves for smooth morphing.
 */

#pragma once

#include <cstdint>

// Wavetable dimensions
#define WT_TABLE_SIZE 256
#define WT_WAVES_PER_BANK 8
#define WT_NUM_BANKS 16
#define WT_SAMPLES_PER_WAVE (WT_TABLE_SIZE + 4)  // +4 for interpolation guard

// ============================================================================
// BANK 0: UPPER_WT
// ============================================================================

// PPG Wave 0
static const int16_t wt_upper_wt_0[WT_SAMPLES_PER_WAVE] = {
       768,   2813,   4829,   6798,   8704,  10529,  12258,  13874,  15360,  16699,
     17879,  18888,  19712,  20344,  20798,  21093,  21248,  21276,  21167,  20907,
     20480,  19879,  19138,  18300,  17408,  16495,  15559,  14587,  13568,  12495,
     11392,  10289,   9215,   8199,   7254,   6394,   5632,   4972,   4389,   3852,
      3328,   2796,   2290,   1855,   1536,   1358,   1264,   1179,   1024,    742,
       362,    -71,   -512,   -926,  -1337,  -1784,  -2304,  -2922,  -3619,  -4363,
     -5120,  -5866,  -6614,  -7383,  -8192,  -9054,  -9953, -10868, -11776, -12652,
    -13474, -14214, -14847, -15354, -15732, -15989, -16128, -16150, -16042, -15784,
    -15360, -14756, -13986, -13071, -12032, -10885,  -9643,  -8315,  -6912,  -5443,
     -3921,  -2358,   -767,    833,   2415,   3941,   5376,   6691,   7891,   8985,
      9984,  10891,  11683,  12329,  12800,  13070,  13150,  13055,  12799,  12401,
     11874,  11233,  10496,   9672,   8761,   7757,   6656,   5457,   4185,   2868,
      1536,    217,  -1054,  -2247,  -3328,  -4271,  -5086,  -5790,  -6400,  -6927,
     -7367,  -7706,  -7935,  -8045,  -8037,  -7914,  -7679,  -7341,  -6916,  -6424,
     -5888,  -5324,  -4745,  -4162,  -3584,  -3020,  -2484,  -1985,  -1535,  -1143,
      -804,   -511,   -255,    -36,    134,    238,    255,    180,     42,   -116,
      -255,   -345,   -399,   -446,   -511,   -612,   -715,   -781,   -768,   -638,
      -384,     -2,    511,   1155,   1902,   2722,   3584,   4462,   5351,   6253,
      7167,   8096,   9042,  10011,  11008,  12028,  13037,  13991,  14847,  15570,
     16152,  16594,  16896,  17057,  17072,  16935,  16640,  16180,  15557,  14771,
     13823,  12715,  11448,  10025,   8447,   6724,   4887,   2974,   1023,   -929,
     -2869,  -4782,  -6655,  -8477, -10240, -11939, -13567, -15115, -16551, -17839,
    -18943, -19835, -20513, -20982, -21248, -21321, -21235, -21027, -20735, -20386,
    -19953, -19400, -18687, -17796, -16773, -15683, -14592, -13547, -12535, -11528,
    -10495,  -9423,  -8348,  -7323,  -6399,  -5612,  -4919,  -4263,  -3584,  -2847,
     -2116,  -1479,  -1024,   -782,   -567,   -131,    768,   2813,   4829,   6798
};

// PPG Wave 1
static const int16_t wt_upper_wt_1[WT_SAMPLES_PER_WAVE] = {
       256,   2847,   5343,   7727,   9984,  12096,  14048,  15824,  17408,  18787,
     19967,  20955,  21760,  22388,  22848,  23148,  23295,  23295,  23134,  22798,
     22271,  21551,  20678,  19705,  18687,  17667,  16649,  15626,  14592,  13545,
     12500,  11477,  10496,   9571,   8708,   7906,   7168,   6492,   5882,   5338,
      4864,   4458,   4115,   3826,   3584,   3377,   3192,   3010,   2816,   2594,
      2346,   2077,   1791,   1493,   1181,    855,    511,    151,   -225,   -617,
     -1024,  -1439,  -1847,  -2227,  -2560,  -2829,  -3040,  -3203,  -3327,  -3420,
     -3464,  -3440,  -3327,  -3114,  -2815,  -2452,  -2048,  -1617,  -1146,   -614,
         0,    708,   1483,   2283,   3071,   3813,   4494,   5103,   5632,   6075,
      6458,   6812,   7168,   7544,   7910,   8226,   8447,   8544,   8522,   8399,
      8191,   7918,   7599,   7256,   6911,   6577,   6231,   5841,   5376,   4818,
      4210,   3609,   3072,   2636,   2269,   1919,   1536,   1083,    599,    134,
      -256,   -535,   -729,   -878,  -1024,  -1197,  -1392,  -1595,  -1791,  -1968,
     -2116,  -2230,  -2303,  -2334,  -2333,  -2318,  -2303,  -2303,  -2309,  -2313,
     -2304,  -2277,  -2251,  -2252,  -2304,  -2420,  -2571,  -2716,  -2816,  -2841,
     -2822,  -2800,  -2816,  -2900,  -3034,  -3186,  -3328,  -3437,  -3537,  -3660,
     -3839,  -4098,  -4417,  -4767,  -5120,  -5447,  -5736,  -5972,  -6144,  -6245,
     -6301,  -6342,  -6400,  -6489,  -6561,  -6553,  -6399,  -6057,  -5562,  -4974,
     -4351,  -3738,  -3123,  -2482,  -1791,  -1034,   -216,    644,   1536,   2442,
      3350,   4247,   5120,   5953,   6719,   7390,   7936,   8329,   8555,   8599,
      8447,   8096,   7572,   6909,   6143,   5299,   4356,   3283,   2047,    636,
      -902,  -2501,  -4096,  -5637,  -7148,  -8668, -10240, -11883, -13545, -15155,
    -16640, -17941, -19053, -19982, -20736, -21322, -21760, -22069, -22271, -22376,
    -22353, -22161, -21760, -21125, -20312, -19390, -18432, -17491, -16557, -15600,
    -14591, -13515, -12401, -11295, -10240,  -9263,  -8331,  -7393,  -6400,  -5327,
     -4257,  -3298,  -2560,  -2083,  -1647,   -963,    256,   2847,   5343,   7727
};

// PPG Wave 2
static const int16_t wt_upper_wt_2[WT_SAMPLES_PER_WAVE] = {
       512,   2856,   5084,   7201,   9216,  11134,  12963,  14711,  16383,  17982,
     19477,  20833,  22016,  22996,  23782,  24389,  24832,  25126,  25295,  25359,
     25343,  25260,  25084,  24782,  24319,  23675,  22877,  21969,  20992,  19982,
     18957,  17924,  16896,  15877,  14861,  13839,  12800,  11740,  10683,   9661,
      8704,   7834,   7043,   6314,   5632,   4983,   4375,   3820,   3328,   2907,
      2557,   2272,   2048,   1877,   1746,   1637,   1536,   1430,   1338,   1280,
      1280,   1346,   1444,   1523,   1536,   1453,   1331,   1248,   1280,   1479,
      1804,   2186,   2559,   2872,   3131,   3361,   3583,   3818,   4068,   4331,
      4608,   4896,   5203,   5531,   5888,   6273,   6671,   7062,   7423,   7741,
      8014,   8248,   8448,   8618,   8759,   8873,   8960,   9018,   9043,   9025,
      8959,   8839,   8668,   8450,   8191,   7894,   7548,   7139,   6656,   6093,
      5490,   4894,   4352,   3898,   3512,   3163,   2816,   2445,   2057,   1664,
      1280,    915,    576,    270,      0,   -226,   -396,   -496,   -512,   -437,
      -301,   -143,      0,    103,    195,    317,    511,    804,   1152,   1501,
      1792,   1980,   2073,   2089,   2047,   1966,   1850,   1705,   1536,   1342,
      1115,    842,    512,    116,   -329,   -801,  -1279,  -1746,  -2199,  -2640,
     -3072,  -3497,  -3929,  -4380,  -4864,  -5381,  -5889,  -6332,  -6656,  -6819,
     -6847,  -6780,  -6656,  -6503,  -6302,  -6022,  -5632,  -5110,  -4485,  -3793,
     -3072,  -2353,  -1643,   -944,   -255,    423,   1108,   1814,   2559,   3346,
      4122,   4820,   5376,   5742,   5954,   6070,   6144,   6212,   6233,   6146,
      5888,   5419,   4789,   4068,   3328,   2613,   1872,   1027,      0,  -1258,
     -2680,  -4170,  -5632,  -6991,  -8269,  -9508, -10752, -12030, -13328, -14618,
    -15872, -17061, -18159, -19137, -19967, -20634, -21168, -21614, -22015, -22401,
    -22735, -22965, -23040, -22923, -22643, -22241, -21760, -21231, -20643, -19973,
    -19199, -18307, -17312, -16236, -15103, -13934, -12732, -11500, -10239,  -8954,
     -7660,  -6376,  -5119,  -3890,  -2608,  -1174,    512,   2856,   5084,   7201
};

// PPG Wave 3
static const int16_t wt_upper_wt_3[WT_SAMPLES_PER_WAVE] = {
      1024,   7113,  12541,  17266,  21248,  24445,  26818,  28326,  28928,  28627,
     27608,  26096,  24320,  22486,  20731,  19170,  17919,  17062,  16539,  16258,
     16128,  16072,  16088,  16188,  16384,  16690,  17122,  17697,  18432,  19326,
     20318,  21326,  22272,  23082,  23716,  24140,  24320,  24222,  23822,  23095,
     22016,  20598,  19008,  17450,  16128,  15194,  14605,  14265,  14080,  13970,
     13929,  13962,  14080,  14269,  14445,  14502,  14336,  13873,  13183,  12365,
     11520,  10722,   9940,   9116,   8191,   7132,   5998,   4873,   3839,   2958,
      2192,   1482,    768,     17,   -689,  -1243,  -1535,  -1482,  -1097,   -419,
       511,   1645,   2872,   4071,   5120,   5916,   6439,   6686,   6656,   6355,
      5833,   5145,   4352,   3500,   2612,   1697,    768,   -155,  -1017,  -1755,
     -2304,  -2614,  -2700,  -2587,  -2303,  -1868,  -1268,   -481,    512,   1713,
      3037,   4378,   5631,   6712,   7615,   8359,   8960,   9434,   9796,  10060,
     10240,  10354,  10445,  10561,  10751,  11049,  11430,  11855,  12288,  12691,
     13049,  13346,  13568,  13698,  13715,  13594,  13312,  12857,  12279,  11641,
     11008,  10432,   9934,   9525,   9215,   9013,   8910,   8896,   8959,   9085,
      9238,   9380,   9471,   9483,   9429,   9332,   9216,   9107,   9043,   9066,
      9215,   9503,   9820,  10027,   9984,   9608,   9049,   8508,   8191,   8244,
      8574,   9033,   9471,   9770,   9932,   9992,   9983,   9942,   9903,   9904,
      9984,  10157,  10358,  10500,  10496,  10288,   9941,   9552,   9216,   9010,
      8945,   9016,   9216,   9523,   9859,  10129,  10240,  10127,   9856,   9520,
      9216,   9013,   8891,   8803,   8704,   8562,   8403,   8266,   8191,   8200,
      8246,   8265,   8191,   7973,   7601,   7076,   6400,   5599,   4803,   4165,
      3839,   3928,   4321,   4858,   5376,   5738,   5909,   5877,   5631,   5177,
      4585,   3939,   3327,   2817,   2405,   2070,   1791,   1551,   1343,   1168,
      1024,    905,    794,    670,    512,    310,    116,     -7,      0,    162,
       338,    345,      0,   -729,  -1278,   -932,   1024,   7113,  12541,  17266
};

// PPG Wave 4
static const int16_t wt_upper_wt_4[WT_SAMPLES_PER_WAVE] = {
         0,      0,      0,      0,      0,      0,      0,      0,      0,      0,
         0,      0,      0,      0,      0,      0,      0,      0,      0,      0,
         0,      0,      0,      0,      0,      0,      0,      0,      0,      0,
         0,      0,      0,      0,      0,      0,      0,      0,      0,      0,
         0,      0,      0,      0,      0,      0,      0,      0,      0,      0,
         0,      0,      0,      0,      0,      0,      0,      0,      0,      0,
         0,      0,      0,      0,      0,      0,      0,      0,      0,      0,
         0,      0,      0,      0,      0,      0,      0,      0,      0,      0,
         0,      0,      0,      0,      0,      0,      0,      0,      0,      0,
         0,      0,      0,      0,      0,      0,      0,      0,      0,      0,
         0,      0,      0,      0,      0,      0,      0,      0,      0,      0,
         0,      0,      0,      0,      0,      0,      0,      0,      0,      0,
         0,      0,      0,      0,      0,      0,      0,      0,      0,      0,
         0,      0,      0,      0,      0,      0,      0,      0,      0,      0,
         0,      0,      0,      0,      0,      0,      0,      0,      0,      0,
         0,      0,      0,      0,      0,      0,      0,      0,      0,      0,
         0,      0,      0,      0,      0,      0,      0,      0,      0,      0,
         0,      0,      0,      0,      0,      0,      0,      0,      0,      0,
         0,      0,      0,      0,      0,      0,      0,      0,      0,      0,
         0,      0,      0,      0,      0,      0,      0,      0,      0,      0,
         0,      0,      0,      0,      0,      0,      0,      0,      0,      0,
         0,      0,      0,      0,      0,      0,      0,      0,      0,      0,
         0,      0,      0,      0,      0,      0,      0,      0,      0,      0,
         0,      0,      0,      0,      0,      0,      0,      0,      0,      0,
         0,      0,      0,      0,      0,      0,      0,      0,      0,      0,
         0,      0,      0,      0,      0,      0,      0,      0,      0,      0
};

// PPG Wave 5
static const int16_t wt_upper_wt_5[WT_SAMPLES_PER_WAVE] = {
       512,   2126,   3587,   4917,   6144,   7290,   8380,   9441,  10496,  11561,
     12617,  13637,  14592,  15461,  16253,  16982,  17664,  18304,  18881,  19360,
     19712,  19914,  19997,  20001,  19968,  19924,  19847,  19703,  19456,  19081,
     18596,  18029,  17408,  16755,  16072,  15352,  14592,  13788,  12955,  12108,
     11264,  10433,   9610,   8782,   7936,   7063,   6169,   5263,   4352,   3447,
      2573,   1757,   1024,    393,   -145,   -612,  -1023,  -1397,  -1734,  -2037,
     -2304,  -2532,  -2706,  -2807,  -2816,  -2716,  -2509,  -2200,  -1792,  -1293,
      -725,   -115,    512,   1140,   1795,   2513,   3328,   4262,   5285,   6354,
      7424,   8461,   9476,  10489,  11520,  12583,  13671,  14772,  15872,  16956,
     18011,  19020,  19968,  20841,  21640,  22372,  23039,  23647,  24192,  24673,
     25087,  25434,  25717,  25941,  26112,  26230,  26281,  26248,  26111,  25860,
     25507,  25072,  24575,  24031,  23432,  22764,  22016,  21176,  20251,  19248,
     18176,  17046,  15883,  14714,  13567,  12462,  11384,  10309,   9215,   8086,
      6930,   5765,   4608,   3472,   2365,   1291,    255,   -735,  -1672,  -2540,
     -3328,  -4028,  -4667,  -5276,  -5888,  -6516,  -7112,  -7607,  -7935,  -8052,
     -8003,  -7856,  -7679,  -7524,  -7370,  -7178,  -6911,  -6539,  -6066,  -5503,
     -4864,  -4159,  -3403,  -2610,  -1791,   -957,    -93,    816,   1792,   2837,
      3906,   4942,   5887,   6705,   7442,   8171,   8960,   9854,  10801,  11723,
     12544,  13205,  13734,  14181,  14591,  15004,  15411,  15791,  16128,  16399,
     16588,  16675,  16640,  16471,  16186,  15807,  15359,  14862,  14314,  13713,
     13055,  12340,  11579,  10788,   9984,   9172,   8327,   7414,   6400,   5262,
      4038,   2779,   1535,    346,   -801,  -1932,  -3072,  -4231,  -5376,  -6456,
     -7424,  -8246,  -8957,  -9605, -10239, -10897, -11563, -12206, -12799, -13317,
    -13750, -14091, -14336, -14479, -14524, -14475, -14336, -14112, -13816, -13459,
    -13055, -12614, -12131, -11598, -11008, -10353,  -9626,  -8823,  -7935,  -6965,
     -5937,  -4884,  -3839,  -2822,  -1792,   -699,    512,   2126,   3587,   4917
};

// PPG Wave 6
static const int16_t wt_upper_wt_6[WT_SAMPLES_PER_WAVE] = {
      1024,   2834,   4643,   6433,   8191,   9902,  11548,  13117,  14592,  15956,
     17193,  18280,  19200,  19938,  20510,  20939,  21247,  21450,  21533,  21473,
     21248,  20846,  20299,  19651,  18944,  18212,  17460,  16681,  15872,  15031,
     14179,  13341,  12544,  11807,  11134,  10527,   9984,   9504,   9088,   8736,
      8448,   8226,   8093,   8073,   8192,   8461,   8842,   9282,   9728,  10139,
     10520,  10890,  11264,  11653,  12049,  12436,  12800,  13126,  13408,  13642,
     13824,  13945,  13995,  13959,  13824,  13578,  13231,  12797,  12288,  11716,
     11093,  10427,   9728,   9007,   8283,   7578,   6912,   6298,   5723,   5167,
      4607,   4035,   3477,   2973,   2560,   2267,   2092,   2023,   2047,   2158,
      2359,   2660,   3072,   3596,   4213,   4900,   5632,   6385,   7152,   7927,
      8704,   9477,  10247,  11013,  11775,  12528,  13234,  13851,  14336,  14657,
     14831,  14886,  14848,  14733,  14510,  14136,  13567,  12781,  11829,  10787,
      9728,   8702,   7673,   6584,   5375,   4010,   2531,   1002,   -512,  -1960,
     -3335,  -4643,  -5888,  -7068,  -8163,  -9144,  -9984, -10659, -11176, -11545,
    -11776, -11879, -11865, -11742, -11520, -11200, -10768, -10199,  -9471,  -8572,
     -7525,  -6363,  -5120,  -3823,  -2489,  -1125,    255,   1644,   3018,   4355,
      5632,   6830,   7951,   9000,   9984,  10906,  11767,  12569,  13311,  13989,
     14576,  15043,  15359,  15508,  15525,  15459,  15360,  15264,  15161,  15030,
     14848,  14603,  14324,  14051,  13824,  13671,  13588,  13558,  13567,  13602,
     13658,  13732,  13823,  13933,  14082,  14293,  14592,  14993,  15483,  16039,
     16640,  17260,  17871,  18442,  18944,  19353,  19686,  19968,  20223,  20466,
     20661,  20766,  20736,  20538,  20193,  19736,  19199,  18609,  17955,  17219,
     16384,  15436,  14385,  13246,  12032,  10756,   9429,   8059,   6656,   5229,
      3800,   2390,   1024,   -277,  -1493,  -2602,  -3584,  -4426,  -5153,  -5800,
     -6400,  -6969,  -7459,  -7803,  -7936,  -7811,  -7471,  -6979,  -6399,  -5781,
     -5118,  -4392,  -3584,  -2671,  -1622,   -402,   1024,   2834,   4643,   6433
};

// PPG Wave 7
static const int16_t wt_upper_wt_7[WT_SAMPLES_PER_WAVE] = {
       768,   3833,   6808,   9643,  12287,  14692,  16807,  18582,  19968,  20920,
     21418,  21447,  20992,  20058,  18734,  17131,  15359,  13511,  11610,   9664,
      7679,   5675,   3717,   1885,    256,  -1105,  -2194,  -3017,  -3584,  -3903,
     -3995,  -3882,  -3584,  -3131,  -2589,  -2033,  -1536,  -1154,   -877,   -672,
      -511,   -380,   -333,   -438,   -768,  -1365,  -2173,  -3111,  -4096,  -5054,
     -5948,  -6748,  -7424,  -7952,  -8337,  -8584,  -8704,  -8697,  -8543,  -8213,
     -7679,  -6932,  -6033,  -5061,  -4095,  -3199,  -2364,  -1562,   -767,     28,
       769,   1382,   1791,   1950,   1909,   1745,   1536,   1341,   1159,    974,
       767,    536,    330,    215,    256,    501,    942,   1551,   2304,   3172,
      4124,   5125,   6144,   7144,   8096,   8968,   9727,  10343,  10783,  11015,
     11007,  10731,  10175,   9331,   8192,   6757,   5057,   3133,   1023,  -1223,
     -3527,  -5795,  -7935,  -9869, -11556, -12969, -14080, -14858, -15270, -15279,
    -14848, -13955, -12640, -10957,  -8960,  -6706,  -4277,  -1757,    767,   3222,
      5560,   7741,   9727,  11479,  12949,  14088,  14848,  15189,  15120,  14659,
     13824,  12637,  11142,   9388,   7424,   5302,   3093,    874,  -1279,  -3301,
     -5149,  -6791,  -8191,  -9323, -10174, -10738, -11008, -10983, -10695, -10179,
     -9472,  -8612,  -7651,  -6640,  -5631,  -4668,  -3753,  -2882,  -2048,  -1257,
      -565,    -39,    256,    279,     97,   -197,   -512,   -772,   -976,  -1139,
     -1280,  -1402,  -1473,  -1447,  -1280,   -936,   -426,    233,   1023,   1922,
      2890,   3885,   4864,   5787,   6624,   7349,   7935,   8361,   8627,   8739,
      8704,   8526,   8210,   7757,   7168,   6450,   5633,   4752,   3839,   2934,
      2085,   1346,    768,    390,    198,    163,    256,    450,    734,   1099,
      1536,   2026,   2525,   2977,   3328,   3529,   3563,   3414,   3072,   2521,
      1749,    742,   -512,  -2019,  -3745,  -5646,  -7680,  -9795, -11919, -13971,
    -15872, -17545, -18943, -20021, -20736, -21048, -20945, -20417, -19455, -18059,
    -16250, -14061, -11520,  -8670,  -5602,  -2422,    768,   3833,   6808,   9643
};

// ============================================================================
// BANK 1: RESONANT1
// ============================================================================

// PPG Wave 8
static const int16_t wt_resonant1_0[WT_SAMPLES_PER_WAVE] = {
      1024,   5285,   9336,  13135,  16640,  19808,  22599,  24970,  26880,  28299,
     29256,  29793,  29951,  29778,  29335,  28688,  27903,  27042,  26139,  25221,
     24320,  23458,  22652,  21912,  21247,  20669,  20178,  19773,  19456,  19218,
     19033,  18868,  18688,  18463,  18182,  17833,  17408,  16905,  16365,  15834,
     15360,  14976,  14660,  14374,  14080,  13747,  13376,  12972,  12543,  12101,
     11675,  11299,  11008,  10826,  10739,  10723,  10752,  10808,  10902,  11048,
     11264,  11554,  11890,  12233,  12544,  12793,  12991,  13157,  13312,  13456,
     13521,  13416,  13056,  12388,  11516,  10582,   9728,   9054,   8507,   7995,
      7423,   6730,   5972,   5235,   4608,   4158,   3890,   3788,   3839,   4023,
      4290,   4588,   4864,   5073,   5219,   5315,   5375,   5407,   5391,   5304,
      5119,   4820,   4412,   3910,   3328,   2678,   1980,   1252,    512,   -215,
      -879,  -1423,  -1792,  -1949,  -1951,  -1873,  -1791,  -1752,  -1681,  -1473,
     -1024,   -258,    774,   1996,   3327,   4699,   6072,   7417,   8704,   9904,
     10999,  11970,  12799,  13470,  13962,  14256,  14336,  14191,  13856,  13377,
     12799,  12157,  11443,  10639,   9728,   8705,   7631,   6582,   5631,   4840,
      4204,   3706,   3327,   3053,   2878,   2800,   2816,   2920,   3097,   3325,
      3584,   3850,   4091,   4271,   4351,   4308,   4151,   3902,   3584,   3212,
      2791,   2318,   1792,   1212,    587,    -75,   -768,  -1475,  -2165,  -2795,
     -3327,  -3733,  -4023,  -4221,  -4352,  -4428,  -4429,  -4328,  -4096,  -3714,
     -3217,  -2647,  -2047,  -1452,   -844,   -199,    512,   1296,   2085,   2791,
      3328,   3631,   3736,   3701,   3584,   3432,   3255,   3050,   2815,   2549,
      2249,   1911,   1535,   1129,    740,    429,    256,    254,    357,    474,
       512,    393,    100,   -371,  -1024,  -1851,  -2806,  -3830,  -4864,  -5865,
     -6857,  -7876,  -8960, -10133, -11364, -12609, -13823, -14953, -15909, -16589,
    -16896, -16766, -16295, -15611, -14847, -14098, -13310, -12395, -11263,  -9868,
     -8319,  -6771,  -5376,  -4201,  -2978,  -1354,   1024,   5285,   9336,  13135
};

// PPG Wave 9
static const int16_t wt_resonant1_1[WT_SAMPLES_PER_WAVE] = {
       512,   2615,   4479,   6151,   7680,   9112,  10496,  11880,  13312,  14819,
     16351,  17835,  19200,  20392,  21441,  22393,  23296,  24181,  25020,  25764,
     26367,  26803,  27118,  27378,  27647,  27971,  28297,  28555,  28672,  28596,
     28362,  28027,  27648,  27268,  26892,  26509,  26112,  25688,  25220,  24686,
     24064,  23344,  22561,  21762,  20992,  20281,  19604,  18916,  18176,  17351,
     16460,  15531,  14592,  13666,  12760,  11873,  11008,  10166,   9362,   8613,
      7936,   7336,   6780,   6227,   5631,   4965,   4249,   3521,   2815,   2162,
      1563,   1014,    511,     48,   -391,   -828,  -1280,  -1757,  -2236,  -2685,
     -3071,  -3376,  -3623,  -3850,  -4096,  -4382,  -4679,  -4940,  -5119,  -5188,
     -5179,  -5140,  -5119,  -5153,  -5225,  -5309,  -5376,  -5401,  -5372,  -5282,
     -5120,  -4885,  -4610,  -4334,  -4096,  -3923,  -3800,  -3696,  -3584,  -3439,
     -3260,  -3051,  -2815,  -2560,  -2295,  -2034,  -1792,  -1576,  -1383,  -1202,
     -1024,   -844,   -683,   -564,   -511,   -539,   -618,   -708,   -767,   -771,
      -745,   -731,   -767,   -881,  -1037,  -1186,  -1280,  -1286,  -1248,  -1225,
     -1280,  -1453,  -1714,  -2014,  -2304,  -2545,  -2742,  -2913,  -3072,  -3234,
     -3410,  -3609,  -3840,  -4101,  -4350,  -4537,  -4608,  -4533,  -4370,  -4198,
     -4096,  -4117,  -4216,  -4318,  -4352,  -4263,  -4077,  -3836,  -3584,  -3356,
     -3155,  -2977,  -2816,  -2663,  -2499,  -2302,  -2048,  -1722,  -1341,   -929,
      -511,   -104,    311,    764,   1280,   1871,   2493,   3084,   3584,   3952,
      4241,   4520,   4864,   5324,   5885,   6511,   7168,   7824,   8471,   9107,
      9728,  10334,  10947,  11590,  12288,  13053,  13851,  14636,  15359,  15991,
     16557,  17101,  17664,  18273,  18893,  19475,  19967,  20340,  20636,  20918,
     21247,  21664,  22112,  22512,  22784,  22876,  22849,  22789,  22784,  22888,
     23032,  23116,  23039,  22730,  22235,  21630,  20992,  20377,  19770,  19133,
     18432,  17633,  16730,  15717,  14592,  13362,  12091,  10854,   9727,   8748,
      7800,   6727,   5376,   3690,   2019,    810,    512,   2615,   4479,   6151
};

// PPG Wave 10
static const int16_t wt_resonant1_2[WT_SAMPLES_PER_WAVE] = {
       512,   2649,   4677,   6607,   8448,  10208,  11898,  13526,  15104,  16633,
     18097,  19473,  20736,  21869,  22878,  23777,  24576,  25289,  25938,  26546,
     27136,  27717,  28246,  28669,  28928,  28986,  28882,  28673,  28416,  28153,
     27872,  27542,  27136,  26633,  26059,  25447,  24831,  24234,  23632,  22989,
     22272,  21455,  20562,  19628,  18688,  17764,  16837,  15875,  14848,  13739,
     12600,  11496,  10496,   9638,   8858,   8065,   7168,   6108,   4959,   3826,
      2816,   2000,   1321,    685,      0,   -796,  -1637,  -2428,  -3071,  -3500,
     -3762,  -3935,  -4096,  -4300,  -4526,  -4728,  -4864,  -4899,  -4851,  -4745,
     -4607,  -4463,  -4323,  -4198,  -4095,  -4018,  -3933,  -3801,  -3583,  -3255,
     -2855,  -2434,  -2047,  -1733,  -1477,  -1250,  -1023,   -776,   -513,   -250,
         0,    231,    461,    717,   1023,   1396,   1803,   2205,   2560,   2836,
      3043,   3200,   3328,   3439,   3526,   3579,   3584,   3535,   3457,   3377,
      3327,   3330,   3380,   3468,   3583,   3711,   3820,   3874,   3840,   3695,
      3481,   3255,   3072,   2970,   2923,   2887,   2816,   2681,   2518,   2376,
      2304,   2329,   2393,   2412,   2304,   2015,   1604,   1159,    768,    494,
       309,    161,      0,   -215,   -473,   -751,  -1023,  -1275,  -1517,  -1769,
     -2047,  -2365,  -2702,  -3032,  -3327,  -3569,  -3767,  -3937,  -4095,  -4255,
     -4403,  -4526,  -4608,  -4638,  -4633,  -4615,  -4607,  -4624,  -4647,  -4650,
     -4608,  -4499,  -4328,  -4105,  -3840,  -3542,  -3222,  -2891,  -2560,  -2235,
     -1916,  -1599,  -1280,   -951,   -598,   -201,    256,    785,   1365,   1966,
      2560,   3124,   3679,   4249,   4863,   5538,   6253,   6977,   7679,   8339,
      8971,   9596,  10240,  10917,  11622,  12339,  13055,  13757,  14428,  15053,
     15615,  16104,  16519,  16866,  17151,  17382,  17574,  17747,  17920,  18103,
     18271,  18392,  18432,  18361,  18170,  17854,  17408,  16832,  16151,  15394,
     14592,  13769,  12935,  12098,  11263,  10435,   9608,   8777,   7936,   7069,
      6132,   5073,   3839,   2447,   1188,    423,    512,   2649,   4677,   6607
};

// PPG Wave 11
static const int16_t wt_resonant1_3[WT_SAMPLES_PER_WAVE] = {
       256,   4342,   8144,  11650,  14848,  17725,  20271,  22473,  24320,  25799,
     26898,  27604,  27904,  27801,  27367,  26689,  25855,  24927,  23857,  22570,
     20992,  19087,  16980,  14830,  12800,  11004,   9373,   7792,   6144,   4346,
      2452,    547,  -1280,  -2953,  -4430,  -5676,  -6655,  -7350,  -7801,  -8063,
     -8192,  -8230,  -8171,  -7994,  -7680,  -7214,  -6616,  -5909,  -5120,  -4274,
     -3411,  -2570,  -1792,  -1106,   -506,     27,    511,    962,   1373,   1738,
      2048,   2298,   2500,   2668,   2815,   2951,   3055,   3103,   3071,   2941,
      2718,   2415,   2047,   1628,   1176,    712,    255,   -170,   -543,   -836,
     -1023,  -1096,  -1113,  -1149,  -1279,  -1549,  -1881,  -2168,  -2304,  -2216,
     -1983,  -1718,  -1536,  -1516,  -1608,  -1727,  -1792,  -1739,  -1600,  -1429,
     -1279,  -1191,  -1142,  -1098,  -1024,   -888,   -677,   -384,      0,    471,
       973,   1436,   1791,   1998,   2128,   2281,   2560,   3026,   3601,   4167,
      4608,   4838,   4905,   4887,   4864,   4895,   4969,   5054,   5120,   5138,
      5104,   5013,   4864,   4660,   4437,   4235,   4096,   4038,   3994,   3873,
      3583,   3076,   2463,   1899,   1535,   1474,   1605,   1765,   1791,   1563,
      1128,    577,      0,   -529,  -1001,  -1420,  -1792,  -2125,  -2436,  -2745,
     -3072,  -3418,  -3717,  -3885,  -3839,  -3534,  -3078,  -2619,  -2304,  -2231,
     -2304,  -2377,  -2304,  -1979,  -1462,   -854,   -255,    255,    697,   1111,
      1535,   1996,   2446,   2825,   3072,   3147,   3115,   3061,   3072,   3204,
      3395,   3552,   3584,   3418,   3078,   2607,   2047,   1436,    769,     38,
      -768,  -1647,  -2542,  -3381,  -4096,  -4643,  -5097,  -5563,  -6144,  -6900,
     -7723,  -8460,  -8960,  -9111,  -8969,  -8630,  -8191,  -7722,  -7183,  -6508,
     -5632,  -4505,  -3159,  -1641,      0,   1725,   3533,   5430,   7423,   9502,
     11584,  13570,  15359,  16879,  18158,  19254,  20224,  21100,  21827,  22329,
     22527,  22360,  21825,  20938,  19711,  18185,  16500,  14820,  13311,  12063,
     10860,   9411,   7423,   4794,   2168,    378,    256,   4342,   8144,  11650
};

// PPG Wave 12
static const int16_t wt_resonant1_4[WT_SAMPLES_PER_WAVE] = {
       768,   2814,   4720,   6506,   8192,   9797,  11343,  12849,  14336,  15814,
     17264,  18658,  19968,  21173,  22286,  23328,  24320,  25273,  26166,  26968,
     27648,  28184,  28598,  28921,  29184,  29408,  29582,  29685,  29696,  29597,
     29389,  29079,  28672,  28174,  27609,  26999,  26368,  25731,  25068,  24351,
     23552,  22652,  21684,  20690,  19712,  18778,  17857,  16904,  15872,  14734,
     13540,  12360,  11264,  10297,   9419,   8568,   7680,   6713,   5709,   4730,
      3840,   3082,   2431,   1845,   1280,    701,    115,   -464,  -1024,  -1548,
     -2028,  -2453,  -2816,  -3107,  -3330,  -3488,  -3583,  -3624,  -3624,  -3605,
     -3583,  -3575,  -3577,  -3582,  -3584,  -3572,  -3536,  -3459,  -3328,  -3132,
     -2885,  -2603,  -2304,  -2004,  -1722,  -1475,  -1279,  -1145,  -1040,   -928,
      -767,   -534,   -257,     19,    255,    420,    536,    640,    768,    944,
      1150,   1357,   1536,   1662,   1741,   1780,   1792,   1784,   1772,   1770,
      1791,   1846,   1919,   1993,   2047,   2070,   2068,   2056,   2048,   2051,
      2060,   2063,   2047,   2006,   1944,   1869,   1791,   1718,   1650,   1589,
      1536,   1487,   1436,   1370,   1280,   1158,   1019,    883,    767,    683,
       596,    468,    255,    -62,   -431,   -776,  -1023,  -1125,  -1142,  -1164,
     -1279,  -1547,  -1909,  -2275,  -2560,  -2699,  -2741,  -2755,  -2816,  -2972,
     -3190,  -3413,  -3583,  -3660,  -3663,  -3626,  -3584,  -3560,  -3532,  -3466,
     -3328,  -3094,  -2783,  -2425,  -2048,  -1674,  -1300,   -916,   -511,    -77,
       400,    933,   1536,   2215,   2963,   3765,   4608,   5479,   6371,   7277,
      8191,   9110,  10046,  11015,  12032,  13104,  14209,  15313,  16383,  17397,
     18362,  19299,  20224,  21149,  22066,  22957,  23808,  24603,  25339,  26013,
     26624,  27169,  27649,  28064,  28416,  28704,  28928,  29088,  29184,  29210,
     29148,  28976,  28672,  28222,  27660,  27027,  26367,  25707,  25010,  24224,
     23295,  22190,  20937,  19583,  18176,  16754,  15335,  13928,  12544,  11176,
      9754,   8191,   6400,   4380,   2479,   1130,    768,   2814,   4720,   6506
};

// PPG Wave 13
static const int16_t wt_resonant1_5[WT_SAMPLES_PER_WAVE] = {
      1536,   7672,  10235,  10241,   8704,   6638,   5060,   4983,   7424,  12821,
     19315,  24472,  25856,  21907,  14572,   6671,   1023,   -297,   1784,   5598,
      9472,  12005,  12880,  12051,   9472,   5232,    -27,  -5528, -10495, -14230,
    -16356, -16575, -14592, -10285,  -4243,   2768,   9984,  16687,  22353,  26507,
     28672,  28536,  26445,  22907,  18432,  13534,   8760,   4661,   1791,    569,
       881,   2480,   5120,   8514,  12225,  15775,  18688,  20580,  21449,  21385,
     20480,  18851,  16729,  14370,  12032,   9926,   8082,   6485,   5119,   3940,
      2781,   1447,   -256,  -2459,  -5030,  -7775, -10496, -12999, -15105, -16634,
    -17408, -17286, -16276, -14424, -11776,  -8428,  -4685,   -904,   2559,   5407,
      7562,   9009,   9728,   9743,   9250,   8483,   7679,   7033,   6571,   6279,
      6144,   6118,   6031,   5680,   4864,   3418,   1335,  -1350,  -4608,  -8358,
    -12334, -16223, -19711, -22512, -24444, -25354, -25087, -23555, -20925, -17433,
    -13311,  -8818,  -4301,   -128,   3328,   5770,   7185,   7632,   7167,   5892,
      4070,   2004,      0,  -1654,  -2730,  -3017,  -2303,   -492,   2052,   4851,
      7424,   9367,  10584,  11052,  10751,   9690,   7995,   5822,   3327,    694,
     -1796,  -3837,  -5119,  -5419,  -4840,  -3569,  -1792,    296,   2471,   4498,
      6143,   7204,   7595,   7260,   6143,   4247,   1802,   -904,  -3583,  -5967,
     -7860,  -9087,  -9472,  -8896,  -7479,  -5393,  -2816,     79,   3121,   6138,
      8960,  11422,  13393,  14747,  15360,  15155,  14250,  12812,  11007,   8977,
      6757,   4358,   1791,   -900,  -3552,  -5963,  -7935,  -9313, -10115, -10403,
    -10240,  -9687,  -8816,  -7697,  -6400,  -5006,  -3641,  -2439,  -1535,  -1008,
      -712,   -443,      0,    766,   1787,   2938,   4095,   5154,   6075,   6838,
      7423,   7780,   7736,   7087,   5631,   3254,    194,  -3218,  -6656,  -9810,
    -12452, -14371, -15360, -15268, -14194, -12294,  -9728,  -6694,  -3570,   -772,
      1279,   2239,   2042,    696,  -1792,  -5331,  -9496, -13777, -17664, -20665,
    -22360, -22347, -20223, -15835, -10021,  -3868,   1536,   7672,  10235,  10241
};

// PPG Wave 14
static const int16_t wt_resonant1_6[WT_SAMPLES_PER_WAVE] = {
      1024,   4371,   7533,  10512,  13312,  15935,  18386,  20668,  22784,  24729,
     26472,  27970,  29184,  30089,  30732,  31177,  31487,  31716,  31876,  31969,
     32000,  31964,  31842,  31606,  31232,  30700,  30034,  29262,  28416,  27519,
     26580,  25598,  24576,  23523,  22492,  21543,  20735,  20108,  19608,  19160,
     18688,  18145,  17601,  17152,  16896,  16888,  17026,  17162,  17152,  16894,
     16469,  16001,  15616,  15401,  15303,  15234,  15104,  14848,  14506,  14143,
     13824,  13589,  13388,  13150,  12799,  12295,  11713,  11163,  10752,  10550,
     10476,  10412,  10240,   9876,   9387,   8877,   8448,   8172,   8003,   7865,
      7679,   7394,   7045,   6693,   6399,   6211,   6120,   6104,   6144,   6216,
      6298,   6367,   6400,   6379,   6317,   6233,   6143,   6053,   5901,   5615,
      5120,   4375,   3483,   2576,   1791,   1219,    773,    325,   -256,  -1057,
     -2001,  -2969,  -3840,  -4524,  -5054,  -5488,  -5888,  -6299,  -6709,  -7093,
     -7424,  -7678,  -7850,  -7937,  -7935,  -7846,  -7680,  -7449,  -7167,  -6845,
     -6483,  -6079,  -5632,  -5141,  -4624,  -4098,  -3584,  -3091,  -2603,  -2093,
     -1535,   -919,   -290,    291,    767,   1099,   1333,   1541,   1791,   2134,
      2539,   2953,   3328,   3621,   3837,   3991,   4096,   4163,   4190,   4170,
      4095,   3968,   3817,   3676,   3583,   3561,   3581,   3602,   3583,   3500,
      3392,   3316,   3328,   3468,   3712,   4020,   4352,   4667,   4926,   5090,
      5120,   4986,   4709,   4316,   3840,   3306,   2733,   2137,   1536,    941,
       357,   -212,   -767,  -1307,  -1829,  -2332,  -2816,  -3276,  -3697,  -4062,
     -4352,  -4555,  -4691,  -4785,  -4864,  -4949,  -5056,  -5195,  -5376,  -5600,
     -5833,  -6030,  -6143,  -6142,  -6039,  -5860,  -5631,  -5372,  -5079,  -4742,
     -4351,  -3905,  -3433,  -2972,  -2559,  -2223,  -1953,  -1730,  -1535,  -1351,
     -1167,   -976,   -768,   -541,   -318,   -128,      0,     52,     73,    122,
       256,    514,    854,   1215,   1535,   1766,   1915,   2002,   2048,   2058,
      1979,   1742,   1280,    604,     55,     55,   1024,   4371,   7533,  10512
};

// PPG Wave 15
static const int16_t wt_resonant1_7[WT_SAMPLES_PER_WAVE] = {
       768,   3124,   5298,   7319,   9216,  11016,  12749,  14443,  16128,  17818,
     19479,  21065,  22528,  23830,  24979,  25990,  26880,  27662,  28345,  28936,
     29439,  29855,  30148,  30279,  30208,  29913,  29459,  28932,  28416,  27968,
     27533,  27027,  26368,  25494,  24439,  23261,  22016,  20750,  19475,  18190,
     16896,  15594,  14298,  13021,  11775,  10565,   9346,   8061,   6656,   5098,
      3452,   1808,    256,  -1137,  -2388,  -3533,  -4608,  -5642,  -6634,  -7572,
     -8447,  -9255, -10018, -10763, -11520, -12297, -13036, -13656, -14080, -14256,
    -14252, -14161, -14080, -14071, -14082, -14028, -13823, -13411, -12840, -12184,
    -11520, -10901, -10300,  -9669,  -8960,  -8139,  -7238,  -6302,  -5375,  -4491,
     -3624,  -2737,  -1792,   -762,    329,   1447,   2560,   3633,   4644,   5573,
      6399,   7114,   7749,   8349,   8960,   9614,  10310,  11035,  11775,  12515,
     13217,  13838,  14335,  14682,  14900,  15028,  15103,  15160,  15213,  15275,
     15360,  15469,  15574,  15636,  15616,  15485,  15256,  14951,  14592,  14196,
     13767,  13302,  12799,  12260,  11690,  11099,  10496,   9889,   9292,   8722,
      8191,   7706,   7233,   6726,   6144,   5459,   4718,   3986,   3327,   2788,
      2341,   1939,   1535,   1097,    636,    177,   -256,   -643,   -983,  -1279,
     -1536,  -1756,  -1950,  -2129,  -2303,  -2478,  -2637,  -2756,  -2816,  -2800,
     -2732,  -2642,  -2559,  -2506,  -2463,  -2405,  -2304,  -2142,  -1940,  -1728,
     -1536,  -1379,  -1228,  -1039,   -767,   -386,     71,    557,   1024,   1431,
      1776,   2064,   2304,   2502,   2680,   2862,   3072,   3323,   3597,   3864,
      4096,   4270,   4400,   4506,   4608,   4717,   4815,   4873,   4863,   4770,
      4625,   4471,   4352,   4294,   4266,   4216,   4095,   3873,   3589,   3303,
      3072,   2938,   2878,   2851,   2815,   2739,   2623,   2475,   2304,   2121,
      1955,   1835,   1792,   1840,   1938,   2027,   2047,   1962,   1809,   1648,
      1536,   1512,   1541,   1567,   1536,   1411,   1239,   1088,   1024,   1083,
      1179,   1198,   1024,    612,    216,    159,    768,   3124,   5298,   7319
};

// ============================================================================
// BANK 2: RESONANT2
// ============================================================================

// PPG Wave 16
static const int16_t wt_resonant2_0[WT_SAMPLES_PER_WAVE] = {
         0,   4606,   8802,  12565,  15872,  18698,  21021,  22817,  24064,  24752,
     24935,  24683,  24064,  23145,  21988,  20653,  19200,  17686,  16165,  14690,
     13312,  12065,  10915,   9812,   8704,   7561,   6443,   5432,   4608,   4033,
      3693,   3554,   3584,   3746,   3999,   4301,   4608,   4882,   5108,   5276,
      5376,   5400,   5357,   5260,   5120,   4940,   4692,   4337,   3840,   3182,
      2433,   1683,   1023,    527,    198,     27,      0,    100,    290,    527,
       768,    982,   1197,   1453,   1791,   2242,   2792,   3418,   4096,   4799,
      5488,   6121,   6656,   7060,   7348,   7546,   7679,   7763,   7772,   7671,
      7424,   7016,   6520,   6028,   5632,   5389,   5217,   4996,   4608,   3972,
      3169,   2317,   1536,    916,    441,     66,   -256,   -559,   -840,  -1085,
     -1280,  -1410,  -1462,  -1424,  -1280,  -1026,   -699,   -342,      0,    289,
       516,    677,    768,    795,    808,    865,   1024,   1319,   1688,   2045,
      2304,   2399,   2356,   2223,   2048,   1876,   1750,   1708,   1792,   2026,
      2386,   2833,   3327,   3828,   4286,   4648,   4863,   4901,   4819,   4695,
      4608,   4611,   4659,   4682,   4608,   4400,   4157,   4011,   4096,   4487,
      5046,   5578,   5888,   5841,   5544,   5163,   4864,   4763,   4776,   4769,
      4607,   4202,   3638,   3047,   2559,   2267,   2108,   1983,   1792,   1471,
      1110,    834,    768,    993,   1417,   1900,   2304,   2516,   2532,   2369,
      2048,   1598,   1093,    618,    255,     65,      5,      6,      0,    -70,
      -219,   -450,   -767,  -1165,  -1592,  -1992,  -2304,  -2489,  -2593,  -2680,
     -2816,  -3040,  -3298,  -3506,  -3583,  -3474,  -3221,  -2894,  -2560,  -2268,
     -1989,  -1676,  -1280,   -772,   -210,    328,    768,   1054,   1231,   1369,
      1536,   1779,   2066,   2344,   2559,   2667,   2660,   2538,   2303,   1965,
      1564,   1148,    767,    457,    202,    -26,   -255,   -499,   -709,   -819,
      -767,   -517,   -149,    230,    512,    619,    602,    539,    512,    562,
       587,    447,      0,   -774,  -1417,  -1351,      0,   4606,   8802,  12565
};

// PPG Wave 17
static const int16_t wt_resonant2_1[WT_SAMPLES_PER_WAVE] = {
       768,   1725,   2639,   3513,   4352,   5158,   5936,   6690,   7424,   8140,
      8845,   9543,  10240,  10938,  11639,  12345,  13055,  13770,  14482,  15185,
     15872,  16536,  17180,  17811,  18432,  19045,  19642,  20209,  20736,  21214,
     21658,  22090,  22528,  22985,  23449,  23901,  24320,  24691,  25021,  25320,
     25600,  25869,  26129,  26381,  26624,  26855,  27067,  27249,  27392,  27488,
     27552,  27599,  27647,  27709,  27779,  27847,  27903,  27941,  27954,  27943,
     27904,  27834,  27729,  27583,  27392,  27153,  26888,  26618,  26367,  26153,
     25965,  25786,  25599,  25390,  25153,  24882,  24576,  24234,  23885,  23561,
     23295,  23106,  22952,  22778,  22528,  22162,  21711,  21220,  20736,  20294,
     19897,  19535,  19200,  18881,  18570,  18253,  17920,  17561,  17180,  16786,
     16383,  15981,  15585,  15205,  14848,  14517,  14204,  13892,  13568,  13219,
     12845,  12448,  12031,  11601,  11182,  10803,  10495,  10275,  10105,   9939,
      9727,   9438,   9098,   8754,   8447,   8211,   8026,   7859,   7680,   7462,
      7210,   6937,   6656,   6376,   6106,   5856,   5632,   5441,   5290,   5181,
      5120,   5100,   5084,   5021,   4864,   4582,   4228,   3872,   3584,   3415,
      3345,   3329,   3327,   3305,   3254,   3176,   3072,   2943,   2803,   2670,
      2560,   2482,   2426,   2372,   2304,   2206,   2082,   1941,   1792,   1641,
      1499,   1375,   1279,   1217,   1169,   1112,   1023,    889,    736,    598,
       511,    499,    526,    546,    512,    393,    231,     80,      0,     25,
       117,    214,    256,    199,     68,    -97,   -255,   -375,   -453,   -496,
      -511,   -506,   -494,   -491,   -511,   -566,   -641,   -714,   -767,   -786,
      -781,   -769,   -768,   -790,   -841,   -918,  -1023,  -1153,  -1293,  -1426,
     -1536,  -1606,  -1632,  -1610,  -1536,  -1411,  -1262,  -1123,  -1024,   -987,
      -995,  -1017,  -1023,   -993,   -931,   -852,   -767,   -689,   -620,   -561,
      -512,   -474,   -456,   -465,   -512,   -595,   -689,   -758,   -768,   -694,
      -561,   -403,   -255,   -135,     21,    295,    768,   1725,   2639,   3513
};

// PPG Wave 18
static const int16_t wt_resonant2_2[WT_SAMPLES_PER_WAVE] = {
       768,   2185,   3448,   4587,   5632,   6612,   7559,   8502,   9472,  10487,
     11528,  12565,  13568,  14514,  15414,  16287,  17152,  18020,  18878,  19705,
     20479,  21187,  21839,  22451,  23039,  23616,  24164,  24661,  25088,  25427,
     25696,  25916,  26112,  26300,  26490,  26682,  26880,  27080,  27255,  27370,
     27392,  27297,  27112,  26875,  26624,  26386,  26150,  25895,  25600,  25249,
     24859,  24456,  24064,  23697,  23337,  22956,  22527,  22030,  21470,  20863,
     20224,  19561,  18875,  18159,  17408,  16621,  15826,  15054,  14336,  13690,
     13081,  12459,  11776,  11000,  10184,   9395,   8704,   8153,   7685,   7214,
      6656,   5951,   5153,   4338,   3583,   2950,   2421,   1961,   1535,   1114,
       682,    228,   -256,   -776,  -1310,  -1829,  -2303,  -2712,  -3057,  -3344,
     -3584,  -3784,  -3965,  -4147,  -4352,  -4593,  -4857,  -5125,  -5375,  -5590,
     -5755,  -5858,  -5887,  -5840,  -5751,  -5667,  -5632,  -5675,  -5765,  -5852,
     -5888,  -5836,  -5714,  -5551,  -5375,  -5212,  -5070,  -4953,  -4864,  -4803,
     -4754,  -4695,  -4608,  -4474,  -4297,  -4083,  -3840,  -3575,  -3305,  -3046,
     -2815,  -2626,  -2480,  -2373,  -2304,  -2264,  -2229,  -2167,  -2047,  -1853,
     -1624,  -1415,  -1280,  -1253,  -1288,  -1319,  -1279,  -1125,   -900,   -673,
      -511,   -462,   -486,   -522,   -511,   -412,   -259,   -104,      0,     18,
       -12,    -36,      0,    131,    307,    458,    511,    423,    252,     83,
         0,     61,    217,    392,    511,    519,    446,    341,    255,    227,
       238,    257,    256,    210,    137,     59,      0,    -23,    -19,     -6,
         0,    -10,    -26,    -29,      0,     70,    158,    231,    256,    212,
       128,     44,      0,     23,     95,    183,    255,    289,    291,    275,
       256,    245,    244,    248,    256,    263,    267,    266,    255,    237,
       221,    222,    256,    327,    414,    485,    511,    472,    393,    309,
       256,    256,    283,    297,    255,    135,    -25,   -173,   -255,   -236,
      -150,    -53,      0,    -11,     19,    232,    768,   2185,   3448,   4587
};

// PPG Wave 19
static const int16_t wt_resonant2_3[WT_SAMPLES_PER_WAVE] = {
       256,   3229,   5838,   8153,  10240,  12166,  14001,  15810,  17664,  19596,
     21516,  23302,  24832,  26016,  26908,  27593,  28160,  28669,  29090,  29366,
     29440,  29276,  28921,  28442,  27904,  27360,  26806,  26225,  25599,  24911,
     24140,  23267,  22272,  21150,  19960,  18773,  17663,  16682,  15794,  14945,
     14080,  13155,  12188,  11206,  10240,   9315,   8445,   7640,   6912,   6264,
      5679,   5135,   4608,   4079,   3555,   3045,   2559,   2108,   1698,   1335,
      1023,    768,    561,    393,    256,    141,     54,      5,      0,     42,
       115,    193,    256,    280,    253,    163,      0,   -235,   -487,   -687,
      -767,   -686,   -511,   -335,   -256,   -342,   -572,   -900,  -1280,  -1668,
     -2031,  -2339,  -2559,  -2679,  -2755,  -2861,  -3071,  -3431,  -3872,  -4297,
     -4608,  -4736,  -4729,  -4662,  -4608,  -4624,  -4695,  -4786,  -4863,  -4900,
     -4903,  -4886,  -4863,  -4844,  -4811,  -4740,  -4608,  -4400,  -4139,  -3856,
     -3584,  -3346,  -3144,  -2969,  -2815,  -2676,  -2547,  -2424,  -2304,  -2181,
     -2056,  -1927,  -1792,  -1647,  -1481,  -1278,  -1023,   -715,   -401,   -142,
         0,    -14,   -144,   -330,   -511,   -639,   -716,   -754,   -767,   -769,
      -766,   -764,   -768,   -784,   -823,   -899,  -1023,  -1201,  -1409,  -1616,
     -1792,  -1913,  -1987,  -2028,  -2048,  -2063,  -2095,  -2167,  -2304,  -2509,
     -2718,  -2848,  -2815,  -2567,  -2166,  -1706,  -1280,   -960,   -741,   -600,
      -512,   -452,   -401,   -342,   -256,   -126,     45,    259,    512,    796,
      1083,   1341,   1536,   1642,   1667,   1626,   1536,   1411,   1271,   1135,
      1023,    953,    928,    951,   1024,   1139,   1255,   1319,   1280,   1107,
       864,    637,    511,    547,    695,    879,   1023,   1074,   1058,   1024,
      1024,   1091,   1216,   1372,   1535,   1682,   1788,   1832,   1792,   1658,
      1485,   1336,   1280,   1353,   1486,   1580,   1535,   1289,    919,    537,
       256,    155,    180,    243,    256,    156,     -8,   -170,   -255,   -223,
      -144,   -121,   -255,   -576,   -820,   -654,    256,   3229,   5838,   8153
};

// PPG Wave 20
static const int16_t wt_resonant2_4[WT_SAMPLES_PER_WAVE] = {
       768,   3896,   6857,   9653,  12288,  14762,  17078,  19239,  21248,  23099,
     24764,  26206,  27392,  28296,  28952,  29404,  29696,  29860,  29888,  29755,
     29440,  28931,  28262,  27478,  26624,  25734,  24805,  23826,  22784,  21672,
     20514,  19339,  18176,  17043,  15919,  14772,  13568,  12292,  11005,   9783,
      8704,   7821,   7097,   6473,   5888,   5290,   4667,   4014,   3328,   2612,
      1911,   1279,    767,    416,    198,     72,      0,    -56,   -111,   -175,
      -256,   -361,   -486,   -624,   -768,   -905,  -1012,  -1061,  -1023,   -889,
      -711,   -562,   -512,   -609,   -813,  -1058,  -1280,  -1428,  -1507,  -1537,
     -1536,  -1521,  -1508,  -1508,  -1535,  -1597,  -1675,  -1748,  -1792,  -1788,
     -1740,  -1653,  -1535,  -1396,  -1251,  -1120,  -1023,   -978,   -997,  -1094,
     -1280,  -1557,  -1892,  -2241,  -2559,  -2819,  -3047,  -3288,  -3583,  -3957,
     -4349,  -4677,  -4863,  -4854,  -4708,  -4512,  -4352,  -4288,  -4273,  -4234,
     -4095,  -3808,  -3413,  -2975,  -2559,  -2213,  -1911,  -1614,  -1279,   -883,
      -460,    -63,    256,    457,    552,    562,    512,    424,    331,    264,
       256,    323,    425,    506,    511,    402,    207,    -27,   -256,   -445,
      -614,   -796,  -1023,  -1313,  -1620,  -1885,  -2047,  -2068,  -1990,  -1877,
     -1792,  -1783,  -1841,  -1937,  -2048,  -2144,  -2197,  -2175,  -2048,  -1798,
     -1466,  -1105,   -768,   -496,   -288,   -127,      0,    110,    220,    348,
       511,    718,    940,   1140,   1279,   1330,   1295,   1189,   1023,    815,
       595,    397,    255,    194,    194,    224,    255,    261,    228,    144,
         0,   -202,   -403,   -530,   -511,   -305,      8,    318,    512,    515,
       401,    278,    256,    406,    657,    899,   1023,    958,    777,    591,
       512,    615,    841,   1095,   1280,   1326,   1263,   1144,   1023,    946,
       920,    946,   1024,   1143,   1261,   1324,   1280,   1099,    850,    624,
       511,    573,    744,    926,   1024,    969,    813,    634,    511,    496,
       515,    469,    255,   -146,   -444,   -263,    768,   3896,   6857,   9653
};

// PPG Wave 21
static const int16_t wt_resonant2_5[WT_SAMPLES_PER_WAVE] = {
       512,   5811,  10724,  15202,  19199,  22669,  25563,  27836,  29440,  30335,
     30509,  29957,  28672,  26669,  24045,  20919,  17408,  13627,   9690,   5708,
      1791,  -1959,  -5495,  -8780, -11776, -14438, -16699, -18482, -19711, -20334,
    -20379, -19898, -18944, -17564, -15799, -13687, -11264,  -8571,  -5669,  -2620,
       511,   3667,   6797,   9856,  12800,  15569,  18062,  20164,  21760,  22765,
     23222,  23204,  22784,  22016,  20886,  19361,  17408,  15024,  12333,   9492,
      6656,   3954,   1425,   -920,  -3072,  -5007,  -6675,  -8013,  -8959,  -9471,
     -9572,  -9302,  -8704,  -7817,  -6683,  -5344,  -3840,  -2210,   -492,   1280,
      3072,   4851,   6604,   8318,   9983,  11575,  13018,  14224,  15104,  15597,
     15753,  15648,  15359,  14942,  14367,  13584,  12543,  11220,   9689,   8049,
      6400,   4822,   3323,   1890,    511,   -806,  -1990,  -2946,  -3584,  -3836,
     -3746,  -3383,  -2816,  -2102,  -1262,   -302,    768,   1936,   3165,   4411,
      5632,   6789,   7866,   8850,   9727,  10485,  11097,  11536,  11776,  11797,
     11617,  11260,  10751,  10108,   9313,   8341,   7167,   5793,   4314,   2854,
      1536,    451,   -426,  -1155,  -1792,  -2378,  -2894,  -3308,  -3583,  -3690,
     -3609,  -3323,  -2815,  -2082,  -1163,   -110,   1024,   2193,   3367,   4521,
      5631,   6674,   7630,   8483,   9216,   9810,  10240,  10477,  10496,  10276,
      9841,   9221,   8448,   7551,   6554,   5480,   4352,   3190,   2019,    863,
      -256,  -1313,  -2282,  -3133,  -3840,  -4379,  -4762,  -5003,  -5120,  -5118,
     -4972,  -4643,  -4095,  -3308,  -2323,  -1201,      0,   1223,   2426,   3568,
      4608,   5513,   6280,   6916,   7424,   7807,   8065,   8194,   8192,   8052,
      7761,   7301,   6656,   5814,   4793,   3615,   2304,    897,   -501,  -1778,
     -2815,  -3537,  -4033,  -4431,  -4864,  -5410,  -5957,  -6341,  -6399,  -6024,
     -5321,  -4454,  -3583,  -2833,  -2164,  -1501,   -768,     88,   1019,   1953,
      2816,   3547,   4133,   4572,   4863,   5015,   5072,   5088,   5119,   5175,
      5082,   4624,   3583,   1919,    293,   -455,    512,   5811,  10724,  15202
};

// PPG Wave 22
static const int16_t wt_resonant2_6[WT_SAMPLES_PER_WAVE] = {
       256,   4284,   8086,  11622,  14847,  17721,  20201,  22243,  23808,  24865,
     25444,  25589,  25344,  24741,  23779,  22448,  20736,  18653,  16300,  13797,
     11264,   8794,   6377,   3970,   1536,   -937,  -3345,  -5552,  -7424,  -8872,
     -9988, -10910, -11776, -12670, -13469, -13998, -14079, -13599, -12677, -11497,
    -10240,  -9037,  -7820,  -6468,  -4864,  -2931,   -778,   1444,   3584,   5519,
      7252,   8815,  10240,  11545,  12695,  13642,  14335,  14739,  14860,  14719,
     14336,  13730,  12919,  11921,  10751,   9431,   7988,   6455,   4863,   3240,
      1589,    -88,  -1792,  -3507,  -5161,  -6666,  -7936,  -8902,  -9582, -10015,
    -10240, -10287, -10171,  -9897,  -9471,  -8902,  -8195,  -7358,  -6399,  -5323,
     -4120,  -2776,  -1279,    365,   2084,   3785,   5376,   6778,   7975,   8959,
      9728,  10278,  10623,  10776,  10752,  10565,  10235,   9778,   9215,   8558,
      7796,   6911,   5888,   4719,   3443,   2109,    767,   -539,  -1793,  -2983,
     -4095,  -5118,  -6029,  -6805,  -7424,  -7863,  -8106,  -8135,  -7935,  -7503,
     -6889,  -6159,  -5376,  -4589,  -3789,  -2951,  -2047,  -1065,    -30,   1019,
      2047,   3020,   3913,   4705,   5376,   5907,   6297,   6546,   6656,   6633,
      6512,   6335,   6143,   5964,   5764,   5498,   5120,   4593,   3932,   3160,
      2304,   1397,    521,   -230,   -768,  -1039,  -1155,  -1270,  -1536,  -2053,
     -2715,  -3364,  -3839,  -4023,  -3950,  -3693,  -3328,  -2920,  -2508,  -2121,
     -1791,  -1535,  -1313,  -1075,   -767,   -358,    115,    595,   1024,   1359,
      1620,   1838,   2048,   2270,   2490,   2681,   2816,   2876,   2879,   2851,
      2816,   2794,   2789,   2797,   2815,   2832,   2794,   2639,   2304,   1751,
      1040,    257,   -512,  -1196,  -1773,  -2231,  -2560,  -2756,  -2844,  -2853,
     -2816,  -2757,  -2690,  -2621,  -2560,  -2504,  -2426,  -2286,  -2047,  -1687,
     -1236,   -743,   -255,    189,    589,    950,   1279,   1586,   1888,   2206,
      2559,   2956,   3344,   3660,   3840,   3841,   3710,   3516,   3328,   3179,
      2966,   2550,   1791,    672,   -345,   -678,    256,   4284,   8086,  11622
};

// PPG Wave 23
static const int16_t wt_resonant2_7[WT_SAMPLES_PER_WAVE] = {
       512,   3877,   7156,  10312,  13312,  16119,  18699,  21018,  23040,  24736,
     26108,  27162,  27904,  28341,  28482,  28333,  27904,  27201,  26235,  25015,
     23551,  21861,  19985,  17972,  15872,  13722,  11520,   9254,   6912,   4494,
      2060,   -315,  -2560,  -4619,  -6515,  -8289,  -9983, -11621, -13150, -14505,
    -15616, -16428, -16944, -17180, -17152, -16876, -16382, -15696, -14848, -13859,
    -12727, -11438,  -9984,  -8359,  -6597,  -4736,  -2816,   -872,   1069,   2988,
      4864,   6675,   8401,  10022,  11520,  12872,  14061,  15067,  15872,  16461,
     16855,  17077,  17151,  17095,  16884,  16487,  15871,  15020,  13975,  12789,
     11519,  10212,   8879,   7522,   6143,   4743,   3306,   1816,    255,  -1374,
     -3002,  -4537,  -5887,  -6989,  -7873,  -8596,  -9215,  -9772, -10240, -10580,
    -10751, -10726, -10525, -10181,  -9728,  -9189,  -8555,  -7802,  -6911,  -5869,
     -4694,  -3411,  -2047,   -634,    772,   2113,   3327,   4373,   5283,   6112,
      6912,   7721,   8523,   9288,   9984,  10580,  11052,  11374,  11519,  11471,
     11233,  10818,  10240,   9514,   8686,   7802,   6912,   6049,   5189,   4295,
      3327,   2260,   1114,    -77,  -1279,  -2458,  -3566,  -4555,  -5375,  -5993,
     -6431,  -6725,  -6911,  -7021,  -7058,  -7022,  -6911,  -6724,  -6453,  -6091,
     -5631,  -5073,  -4440,  -3763,  -3072,  -2389,  -1704,   -999,   -256,    538,
      1370,   2221,   3072,   3899,   4669,   5344,   5888,   6275,   6543,   6738,
      6911,   7096,   7269,   7391,   7423,   7337,   7131,   6816,   6400,   5895,
      5324,   4716,   4095,   3482,   2864,   2222,   1536,    798,     48,   -661,
     -1279,  -1770,  -2161,  -2495,  -2816,  -3154,  -3498,  -3820,  -4096,  -4305,
     -4453,  -4550,  -4608,  -4631,  -4607,  -4520,  -4351,  -4093,  -3770,  -3418,
     -3071,  -2750,  -2420,  -2031,  -1536,   -899,   -147,    677,   1535,   2379,
      3138,   3736,   4095,   4176,   4072,   3917,   3840,   3931,   4121,   4298,
      4352,   4201,   3889,   3488,   3072,   2698,   2369,   2071,   1792,   1511,
      1191,    787,    255,   -377,   -800,   -631,    512,   3877,   7156,  10312
};

// ============================================================================
// BANK 3: MELLOW
// ============================================================================

// PPG Wave 24
static const int16_t wt_mellow_0[WT_SAMPLES_PER_WAVE] = {
       768,   3032,   4983,   6682,   8192,   9573,  10888,  12199,  13568,  15033,
     16549,  18046,  19456,  20724,  21858,  22879,  23808,  24663,  25455,  26191,
     26880,  27522,  28096,  28574,  28928,  29140,  29232,  29236,  29183,  29101,
     28990,  28848,  28672,  28454,  28180,  27832,  27391,  26848,  26221,  25540,
     24831,  24119,  23411,  22709,  22016,  21331,  20644,  19938,  19200,  18421,
     17627,  16852,  16127,  15479,  14893,  14349,  13824,  13301,  12781,  12271,
     11776,  11299,  10842,  10404,   9984,   9584,   9223,   8922,   8704,   8578,
      8518,   8487,   8448,   8373,   8285,   8214,   8191,   8241,   8355,   8515,
      8704,   8906,   9109,   9301,   9472,   9613,   9736,   9854,   9984,  10136,
     10314,  10519,  10752,  11005,  11244,  11430,  11520,  11487,  11362,  11187,
     11007,  10857,  10731,  10615,  10496,  10359,  10193,   9986,   9728,   9409,
      9038,   8629,   8192,   7739,   7282,   6832,   6399,   5988,   5573,   5124,
      4608,   4005,   3349,   2682,   2048,   1479,    964,    479,      0,   -492,
     -1000,  -1519,  -2047,  -2580,  -3107,  -3616,  -4096,  -4532,  -4906,  -5194,
     -5375,  -5439,  -5426,  -5387,  -5375,  -5423,  -5483,  -5490,  -5375,  -5097,
     -4702,  -4259,  -3839,  -3490,  -3163,  -2791,  -2303,  -1654,   -883,    -54,
       767,   1539,   2281,   3035,   3839,   4721,   5645,   6562,   7424,   8194,
      8896,   9566,  10240,  10944,  11665,  12377,  13056,  13683,  14267,  14821,
     15359,  15889,  16385,  16816,  17151,  17371,  17502,  17587,  17663,  17757,
     17826,  17814,  17664,  17338,  16886,  16374,  15871,  15427,  15012,  14579,
     14080,  13479,  12792,  12045,  11264,  10473,   9688,   8923,   8191,   7499,
      6820,   6123,   5376,   4557,   3699,   2848,   2047,   1327,    651,    -30,
      -768,  -1590,  -2433,  -3212,  -3840,  -4258,  -4517,  -4693,  -4864,  -5087,
     -5352,  -5628,  -5888,  -6103,  -6265,  -6366,  -6399,  -6360,  -6256,  -6095,
     -5887,  -5644,  -5380,  -5114,  -4864,  -4638,  -4414,  -4158,  -3840,  -3437,
     -2979,  -2502,  -2048,  -1622,  -1109,   -362,    768,   3032,   4983,   6682
};

// PPG Wave 25
static const int16_t wt_mellow_1[WT_SAMPLES_PER_WAVE] = {
       768,   3124,   5298,   7319,   9216,  11016,  12749,  14443,  16128,  17818,
     19479,  21065,  22528,  23830,  24979,  25990,  26880,  27662,  28345,  28936,
     29439,  29855,  30148,  30279,  30208,  29913,  29459,  28932,  28416,  27968,
     27533,  27027,  26368,  25494,  24439,  23261,  22016,  20750,  19475,  18190,
     16896,  15594,  14298,  13021,  11775,  10565,   9346,   8061,   6656,   5098,
      3452,   1808,    256,  -1137,  -2388,  -3533,  -4608,  -5642,  -6634,  -7572,
     -8447,  -9255, -10018, -10763, -11520, -12297, -13036, -13656, -14080, -14256,
    -14252, -14161, -14080, -14071, -14082, -14028, -13823, -13411, -12840, -12184,
    -11520, -10901, -10300,  -9669,  -8960,  -8139,  -7238,  -6302,  -5375,  -4491,
     -3624,  -2737,  -1792,   -762,    329,   1447,   2560,   3633,   4644,   5573,
      6399,   7114,   7749,   8349,   8960,   9614,  10310,  11035,  11775,  12515,
     13217,  13838,  14335,  14682,  14900,  15028,  15103,  15160,  15213,  15275,
     15360,  15469,  15574,  15636,  15616,  15485,  15256,  14951,  14592,  14196,
     13767,  13302,  12799,  12260,  11690,  11099,  10496,   9889,   9292,   8722,
      8191,   7706,   7233,   6726,   6144,   5459,   4718,   3986,   3327,   2788,
      2341,   1939,   1535,   1097,    636,    177,   -256,   -643,   -983,  -1279,
     -1536,  -1756,  -1950,  -2129,  -2303,  -2478,  -2637,  -2756,  -2816,  -2800,
     -2732,  -2642,  -2559,  -2506,  -2463,  -2405,  -2304,  -2142,  -1940,  -1728,
     -1536,  -1379,  -1228,  -1039,   -767,   -386,     71,    557,   1024,   1431,
      1776,   2064,   2304,   2502,   2680,   2862,   3072,   3323,   3597,   3864,
      4096,   4270,   4400,   4506,   4608,   4717,   4815,   4873,   4863,   4770,
      4625,   4471,   4352,   4294,   4266,   4216,   4095,   3873,   3589,   3303,
      3072,   2938,   2878,   2851,   2815,   2739,   2623,   2475,   2304,   2121,
      1955,   1835,   1792,   1840,   1938,   2027,   2047,   1962,   1809,   1648,
      1536,   1512,   1541,   1567,   1536,   1411,   1239,   1088,   1024,   1083,
      1179,   1198,   1024,    612,    216,    159,    768,   3124,   5298,   7319
};

// PPG Wave 26
static const int16_t wt_mellow_2[WT_SAMPLES_PER_WAVE] = {
       512,   2022,   3568,   5122,   6656,   8141,   9551,  10857,  12032,  13063,
     14001,  14915,  15872,  16914,  17993,  19035,  19968,  20735,  21353,  21854,
     22271,  22631,  22929,  23154,  23295,  23349,  23344,  23314,  23296,  23308,
     23309,  23239,  23040,  22671,  22169,  21591,  20992,  20415,  19852,  19283,
     18688,  18048,  17364,  16638,  15872,  15069,  14240,  13395,  12544,  11695,
     10855,  10027,   9215,   8423,   7648,   6889,   6143,   5407,   4662,   3890,
      3072,   2195,   1284,    371,   -511,  -1340,  -2120,  -2864,  -3584,  -4287,
     -4961,  -5586,  -6144,  -6619,  -7023,  -7372,  -7680,  -7957,  -8190,  -8360,
     -8447,  -8442,  -8372,  -8276,  -8192,  -8140,  -8078,  -7945,  -7679,  -7246,
     -6704,  -6138,  -5632,  -5241,  -4910,  -4556,  -4095,  -3472,  -2740,  -1981,
     -1280,   -693,   -192,    276,    767,   1319,   1911,   2507,   3072,   3578,
      4035,   4458,   4864,   5265,   5660,   6040,   6399,   6730,   7020,   7255,
      7424,   7520,   7571,   7612,   7680,   7796,   7942,   8085,   8191,   8240,
      8241,   8218,   8192,   8178,   8178,   8184,   8192,   8196,   8197,   8195,
      8191,   8187,   8184,   8185,   8191,   8204,   8215,   8214,   8191,   8140,
      8071,   7998,   7935,   7891,   7849,   7786,   7680,   7516,   7315,   7104,
      6911,   6758,   6634,   6520,   6399,   6255,   6082,   5875,   5631,   5353,
      5067,   4807,   4607,   4491,   4433,   4398,   4352,   4266,   4144,   3998,
      3840,   3679,   3531,   3409,   3327,   3290,   3264,   3206,   3072,   2836,
      2545,   2261,   2048,   1951,   1946,   1992,   2048,   2075,   2052,   1964,
      1791,   1528,   1202,    850,    511,    214,    -46,   -283,   -511,   -739,
      -953,  -1139,  -1279,  -1370,  -1451,  -1574,  -1792,  -2135,  -2553,  -2974,
     -3328,  -3561,  -3696,  -3775,  -3840,  -3920,  -4004,  -4070,  -4096,  -4065,
     -3995,  -3912,  -3840,  -3798,  -3787,  -3802,  -3839,  -3889,  -3926,  -3920,
     -3839,  -3666,  -3418,  -3125,  -2815,  -2516,  -2240,  -1995,  -1792,  -1633,
     -1507,  -1395,  -1279,  -1127,   -848,   -336,    512,   2022,   3568,   5122
};

// PPG Wave 27
static const int16_t wt_mellow_3[WT_SAMPLES_PER_WAVE] = {
       768,   1806,   2787,   3718,   4608,   5465,   6300,   7121,   7936,   8749,
      9546,  10305,  11008,  11644,  12250,  12876,  13567,  14357,  15210,  16073,
     16896,  17636,  18299,  18900,  19456,  19980,  20487,  20990,  21504,  22035,
     22568,  23080,  23552,  23967,  24344,  24709,  25088,  25495,  25909,  26296,
     26624,  26869,  27055,  27218,  27392,  27599,  27818,  28016,  28160,  28225,
     28228,  28198,  28159,  28136,  28129,  28138,  28160,  28190,  28213,  28209,
     28160,  28049,  27881,  27659,  27392,  27085,  26758,  26427,  26112,  25826,
     25566,  25323,  25087,  24851,  24607,  24347,  24063,  23754,  23428,  23100,
     22783,  22487,  22191,  21872,  21504,  21072,  20604,  20138,  19711,  19352,
     19039,  18742,  18431,  18083,  17703,  17303,  16896,  16493,  16099,  15720,
     15360,  15019,  14696,  14385,  14079,  13775,  13464,  13141,  12800,  12435,
     12052,  11659,  11264,  10875,  10516,  10211,   9984,   9845,   9752,   9646,
      9471,   9189,   8841,   8488,   8191,   7994,   7872,   7781,   7680,   7534,
      7349,   7137,   6912,   6685,   6473,   6287,   6144,   6049,   5989,   5942,
      5888,   5807,   5695,   5552,   5376,   5170,   4956,   4760,   4608,   4516,
      4464,   4419,   4351,   4239,   4099,   3957,   3839,   3763,   3712,   3661,
      3583,   3464,   3320,   3181,   3072,   3010,   2971,   2918,   2815,   2641,
      2424,   2212,   2047,   1961,   1920,   1879,   1792,   1626,   1412,   1196,
      1024,    925,    876,    837,    767,    642,    488,    346,    255,    242,
       271,    292,    256,    126,    -70,   -296,   -511,   -685,   -819,   -928,
     -1024,  -1114,  -1194,  -1252,  -1280,  -1272,  -1252,  -1245,  -1280,  -1374,
     -1509,  -1658,  -1792,  -1889,  -1957,  -2005,  -2048,  -2094,  -2149,  -2218,
     -2304,  -2405,  -2500,  -2561,  -2560,  -2479,  -2343,  -2188,  -2048,  -1949,
     -1884,  -1837,  -1792,  -1736,  -1671,  -1603,  -1536,  -1473,  -1413,  -1350,
     -1280,  -1200,  -1121,  -1058,  -1023,  -1025,  -1042,  -1051,  -1023,   -942,
      -818,   -668,   -512,   -351,   -131,    218,    768,   1806,   2787,   3718
};

// PPG Wave 28
static const int16_t wt_mellow_4[WT_SAMPLES_PER_WAVE] = {
       512,   1177,   1880,   2603,   3328,   4036,   4711,   5334,   5888,   6363,
      6793,   7218,   7680,   8208,   8787,   9388,   9983,  10550,  11082,  11577,
     12032,  12451,  12866,  13311,  13824,  14421,  15051,  15643,  16128,  16458,
     16687,  16893,  17152,  17517,  17942,  18356,  18688,  18889,  18999,  19082,
     19200,  19398,  19658,  19945,  20224,  20466,  20671,  20844,  20992,  21115,
     21207,  21255,  21247,  21182,  21090,  21013,  20991,  21050,  21149,  21233,
     21248,  21152,  20967,  20731,  20479,  20244,  20034,  19855,  19711,  19602,
     19501,  19377,  19199,  18946,  18632,  18282,  17919,  17567,  17232,  16921,
     16640,  16388,  16149,  15900,  15615,  15281,  14903,  14498,  14080,  13662,
     13258,  12881,  12544,  12248,  11964,  11649,  11264,  10781,  10242,   9702,
      9215,   8824,   8505,   8221,   7936,   7617,   7257,   6852,   6399,   5902,
      5378,   4853,   4352,   3893,   3484,   3124,   2816,   2554,   2315,   2071,
      1791,   1457,   1077,    671,    256,   -151,   -545,   -923,  -1279,  -1615,
     -1934,  -2246,  -2560,  -2880,  -3204,  -3526,  -3839,  -4139,  -4415,  -4660,
     -4863,  -5025,  -5179,  -5367,  -5631,  -5996,  -6416,  -6828,  -7168,  -7390,
     -7521,  -7604,  -7680,  -7783,  -7911,  -8051,  -8192,  -8322,  -8447,  -8572,
     -8704,  -8845,  -8987,  -9115,  -9216,  -9282,  -9331,  -9387,  -9472,  -9600,
     -9749,  -9888,  -9983, -10015, -10005,  -9983,  -9984, -10027, -10101, -10179,
    -10240, -10264, -10261, -10248, -10240, -10247, -10259, -10262, -10240, -10183,
    -10108, -10034,  -9984,  -9970,  -9980,  -9991,  -9984,  -9942,  -9875,  -9799,
     -9728,  -9672,  -9621,  -9560,  -9471,  -9348,  -9205,  -9068,  -8960,  -8894,
     -8851,  -8798,  -8703,  -8548,  -8348,  -8135,  -7935,  -7772,  -7640,  -7528,
     -7423,  -7316,  -7199,  -7066,  -6911,  -6733,  -6537,  -6337,  -6143,  -5963,
     -5785,  -5594,  -5375,  -5121,  -4849,  -4584,  -4352,  -4165,  -3999,  -3817,
     -3584,  -3275,  -2927,  -2587,  -2304,  -2110,  -1985,  -1891,  -1792,  -1656,
     -1481,  -1269,  -1024,   -743,   -409,      1,    512,   1177,   1880,   2603
};

// PPG Wave 29
static const int16_t wt_mellow_5[WT_SAMPLES_PER_WAVE] = {
       768,   1199,   1746,   2379,   3072,   3796,   4525,   5232,   5888,   6473,
      6998,   7480,   7936,   8380,   8823,   9270,   9728,  10202,  10699,  11222,
     11776,  12359,  12953,  13535,  14080,  14571,  15022,  15449,  15872,  16305,
     16750,  17204,  17664,  18126,  18584,  19030,  19456,  19856,  20240,  20615,
     20992,  21377,  21767,  22153,  22528,  22883,  23217,  23526,  23808,  24062,
     24305,  24555,  24832,  25146,  25480,  25810,  26112,  26365,  26572,  26741,
     26880,  26997,  27109,  27235,  27392,  27589,  27805,  28005,  28159,  28247,
     28293,  28337,  28415,  28553,  28716,  28857,  28927,  28897,  28807,  28712,
     28672,  28722,  28822,  28911,  28927,  28832,  28671,  28510,  28416,  28434,
     28524,  28624,  28672,  28621,  28493,  28327,  28160,  28020,  27900,  27781,
     27648,  27485,  27297,  27093,  26879,  26666,  26461,  26273,  26111,  25981,
     25866,  25745,  25600,  25415,  25210,  25007,  24831,  24699,  24588,  24472,
     24320,  24111,  23858,  23579,  23296,  23022,  22762,  22512,  22272,  22036,
     21796,  21537,  21248,  20922,  20581,  20253,  19967,  19742,  19558,  19387,
     19200,  18975,  18720,  18449,  18176,  17911,  17654,  17402,  17152,  16898,
     16643,  16386,  16128,  15868,  15610,  15354,  15104,  14858,  14610,  14354,
     14080,  13786,  13497,  13244,  13056,  12947,  12870,  12757,  12544,  12189,
     11757,  11334,  11007,  10840,  10787,  10781,  10751,  10644,  10466,  10239,
      9984,   9720,   9456,   9201,   8960,   8738,   8537,   8355,   8191,   8045,
      7913,   7792,   7679,   7570,   7455,   7324,   7167,   6979,   6775,   6575,
      6399,   6261,   6145,   6028,   5888,   5709,   5507,   5304,   5119,   4971,
      4847,   4731,   4608,   4465,   4318,   4188,   4095,   4051,   4022,   3966,
      3839,   3617,   3335,   3050,   2815,   2672,   2602,   2575,   2559,   2530,
      2479,   2404,   2304,   2178,   2041,   1907,   1792,   1706,   1643,   1591,
      1535,   1465,   1366,   1224,   1024,    761,    472,    203,      0,   -104,
      -121,    -78,      0,     98,    238,    451,    768,   1199,   1746,   2379
};

// PPG Wave 30
static const int16_t wt_mellow_6[WT_SAMPLES_PER_WAVE] = {
      1024,   1439,   1932,   2483,   3072,   3676,   4275,   4848,   5376,   5844,
      6278,   6708,   7168,   7676,   8211,   8736,   9215,   9627,   9995,  10358,
     10752,  11205,  11710,  12247,  12800,  13350,  13884,  14387,  14847,  15257,
     15633,  16000,  16384,  16801,  17246,  17708,  18175,  18638,  19092,  19536,
     19968,  20385,  20783,  21157,  21504,  21821,  22126,  22440,  22784,  23169,
     23575,  23969,  24320,  24607,  24851,  25086,  25344,  25645,  25976,  26311,
     26623,  26897,  27145,  27388,  27647,  27935,  28225,  28482,  28671,  28771,
     28815,  28852,  28928,  29077,  29278,  29496,  29695,  29850,  29972,  30084,
     30207,  30356,  30509,  30640,  30720,  30732,  30708,  30690,  30720,  30824,
     30975,  31125,  31232,  31263,  31246,  31222,  31232,  31300,  31397,  31475,
     31488,  31405,  31260,  31100,  30976,  30921,  30922,  30949,  30975,  30975,
     30938,  30855,  30719,  30530,  30316,  30111,  29952,  29861,  29813,  29770,
     29695,  29560,  29375,  29157,  28927,  28703,  28494,  28310,  28160,  28045,
     27942,  27820,  27648,  27407,  27127,  26852,  26623,  26470,  26362,  26257,
     26112,  25896,  25630,  25350,  25087,  24869,  24682,  24506,  24319,  24106,
     23864,  23593,  23295,  22975,  22645,  22320,  22015,  21741,  21489,  21243,
     20991,  20724,  20453,  20195,  19967,  19779,  19609,  19425,  19200,  18911,
     18581,  18241,  17920,  17640,  17390,  17149,  16896,  16617,  16334,  16076,
     15871,  15737,  15639,  15529,  15360,  15098,  14771,  14418,  14080,  13787,
     13531,  13293,  13055,  12804,  12543,  12283,  12032,  11794,  11557,  11301,
     11008,  10669,  10315,   9987,   9727,   9561,   9453,   9354,   9216,   9001,
      8734,   8452,   8191,   7980,   7799,   7623,   7424,   7181,   6913,   6644,
      6400,   6196,   6017,   5837,   5631,   5383,   5111,   4843,   4608,   4425,
      4288,   4183,   4096,   4010,   3909,   3773,   3584,   3331,   3049,   2778,
      2560,   2421,   2325,   2218,   2047,   1778,   1441,   1088,    767,    521,
       355,    267,    255,    320,    465,    698,   1024,   1439,   1932,   2483
};

// PPG Wave 31
static const int16_t wt_mellow_7[WT_SAMPLES_PER_WAVE] = {
         0,      0,      0,      0,      0,      0,      0,      0,      0,      0,
         0,      0,      0,      0,      0,      0,      0,      0,      0,      0,
         0,      0,      0,      0,      0,      0,      0,      0,      0,      0,
         0,      0,      0,      0,      0,      0,      0,      0,      0,      0,
         0,      0,      0,      0,      0,      0,      0,      0,      0,      0,
         0,      0,      0,      0,      0,      0,      0,      0,      0,      0,
         0,      0,      0,      0,      0,      0,      0,      0,      0,      0,
         0,      0,      0,      0,      0,      0,      0,      0,      0,      0,
         0,      0,      0,      0,      0,      0,      0,      0,      0,      0,
         0,      0,      0,      0,      0,      0,      0,      0,      0,      0,
         0,      0,      0,      0,      0,      0,      0,      0,      0,      0,
         0,      0,      0,      0,      0,      0,      0,      0,      0,      0,
         0,      0,      0,      0,      0,      0,      0,      0,      0,      0,
         0,      0,      0,      0,      0,      0,      0,      0,      0,      0,
         0,      0,      0,      0,      0,      0,      0,      0,      0,      0,
         0,      0,      0,      0,      0,      0,      0,      0,      0,      0,
         0,      0,      0,      0,      0,      0,      0,      0,      0,      0,
         0,      0,      0,      0,      0,      0,      0,      0,      0,      0,
         0,      0,      0,      0,      0,      0,      0,      0,      0,      0,
         0,      0,      0,      0,      0,      0,      0,      0,      0,      0,
         0,      0,      0,      0,      0,      0,      0,      0,      0,      0,
         0,      0,      0,      0,      0,      0,      0,      0,      0,      0,
         0,      0,      0,      0,      0,      0,      0,      0,      0,      0,
         0,      0,      0,      0,      0,      0,      0,      0,      0,      0,
         0,      0,      0,      0,      0,      0,      0,      0,      0,      0,
         0,      0,      0,      0,      0,      0,      0,      0,      0,      0
};

// ============================================================================
// BANK 4: BRIGHT
// ============================================================================

// PPG Wave 32
static const int16_t wt_bright_0[WT_SAMPLES_PER_WAVE] = {
       768,   1084,   1454,   1865,   2304,   2758,   3217,   3667,   4096,   4495,
      4875,   5249,   5632,   6030,   6431,   6816,   7167,   7471,   7734,   7970,
      8191,   8411,   8645,   8908,   9216,   9577,   9971,  10372,  10752,  11091,
     11403,  11709,  12032,  12385,  12766,  13163,  13568,  13970,  14363,  14743,
     15104,  15441,  15762,  16073,  16384,  16699,  17018,  17340,  17664,  17986,
     18306,  18626,  18944,  19260,  19577,  19897,  20224,  20556,  20887,  21206,
     21504,  21773,  22025,  22272,  22527,  22799,  23074,  23331,  23551,  23722,
     23853,  23961,  24063,  24175,  24297,  24430,  24576,  24733,  24909,  25110,
     25344,  25610,  25888,  26150,  26368,  26524,  26640,  26748,  26880,  27056,
     27260,  27466,  27648,  27786,  27899,  28015,  28160,  28350,  28563,  28766,
     28927,  29024,  29078,  29120,  29183,  29290,  29426,  29569,  29696,  29788,
     29854,  29904,  29952,  30005,  30066,  30134,  30208,  30284,  30358,  30420,
     30463,  30483,  30485,  30475,  30464,  30456,  30453,  30456,  30463,  30475,
     30485,  30483,  30463,  30420,  30358,  30284,  30208,  30134,  30066,  30005,
     29952,  29904,  29854,  29788,  29695,  29569,  29426,  29290,  29183,  29120,
     29078,  29024,  28928,  28766,  28563,  28350,  28159,  28015,  27899,  27786,
     27647,  27466,  27260,  27056,  26879,  26748,  26640,  26524,  26368,  26150,
     25888,  25610,  25343,  25110,  24909,  24733,  24576,  24430,  24297,  24175,
     24063,  23961,  23853,  23722,  23551,  23331,  23074,  22799,  22528,  22272,
     22025,  21773,  21504,  21206,  20887,  20556,  20224,  19897,  19577,  19260,
     18943,  18626,  18306,  17986,  17664,  17340,  17018,  16699,  16384,  16073,
     15762,  15441,  15103,  14743,  14363,  13970,  13567,  13163,  12766,  12385,
     12032,  11709,  11403,  11091,  10751,  10372,   9971,   9577,   9216,   8908,
      8645,   8411,   8191,   7970,   7734,   7471,   7168,   6817,   6432,   6030,
      5631,   5248,   4873,   4493,   4095,   3672,   3227,   2768,   2304,   1846,
      1418,   1050,    768,    595,    537,    595,    768,   1084,   1454,   1865
};

// PPG Wave 33
static const int16_t wt_bright_1[WT_SAMPLES_PER_WAVE] = {
       768,   2089,   3435,   4791,   6144,   7480,   8788,  10054,  11264,  12406,
     13473,  14460,  15360,  16170,  16900,  17564,  18175,  18741,  19244,  19660,
     19968,  20148,  20203,  20140,  19968,  19694,  19335,  18908,  18431,  17915,
     17336,  16664,  15872,  14941,  13912,  12839,  11776,  10759,   9764,   8752,
      7680,   6521,   5299,   4052,   2816,   1619,    460,   -672,  -1792,  -2900,
     -3974,  -4980,  -5888,  -6673,  -7347,  -7932,  -8448,  -8910,  -9322,  -9681,
     -9984, -10227, -10400, -10494, -10495, -10396, -10194,  -9886,  -9471,  -8953,
     -8343,  -7657,  -6912,  -6117,  -5265,  -4340,  -3327,  -2219,  -1026,    231,
      1536,   2870,   4220,   5572,   6912,   8228,   9520,  10787,  12031,  13255,
     14466,  15676,  16895,  18126,  19334,  20474,  21503,  22389,  23140,  23777,
     24319,  24787,  25192,  25545,  25856,  26127,  26329,  26422,  26367,  26142,
     25778,  25325,  24832,  24331,  23804,  23214,  22527,  21718,  20795,  19778,
     18687,  17539,  16342,  15101,  13824,  12519,  11211,   9930,   8704,   7547,
      6426,   5291,   4095,   2810,   1483,    182,  -1023,  -2084,  -3015,  -3845,
     -4608,  -5326,  -5998,  -6615,  -7168,  -7645,  -8030,  -8304,  -8448,  -8452,
     -8344,  -8160,  -7936,  -7696,  -7424,  -7087,  -6656,  -6107,  -5447,  -4687,
     -3839,  -2916,  -1922,   -863,    256,   1428,   2640,   3875,   5120,   6358,
      7585,   8795,   9984,  11148,  12297,  13441,  14591,  15751,  16888,  17965,
     18944,  19794,  20531,  21178,  21760,  22293,  22776,  23199,  23551,  23825,
     24009,  24092,  24064,  23914,  23647,  23268,  22784,  22199,  21527,  20779,
     19967,  19103,  18179,  17190,  16127,  14988,  13785,  12538,  11264,   9975,
      8661,   7304,   5888,   4404,   2895,   1409,      0,  -1299,  -2514,  -3688,
     -4863,  -6067,  -7268,  -8418,  -9471, -10393, -11195, -11903, -12544, -13135,
    -13678, -14166, -14592, -14947, -15210, -15355, -15359, -15207, -14920, -14534,
    -14080, -13584, -13042, -12443, -11775, -11032, -10222,  -9356,  -8448,  -7505,
     -6517,  -5471,  -4352,  -3151,  -1883,   -570,    768,   2089,   3435,   4791
};

// PPG Wave 34
static const int16_t wt_bright_2[WT_SAMPLES_PER_WAVE] = {
       768,   3032,   4983,   6682,   8192,   9573,  10888,  12199,  13568,  15033,
     16549,  18046,  19456,  20724,  21858,  22879,  23808,  24663,  25455,  26191,
     26880,  27522,  28096,  28574,  28928,  29140,  29232,  29236,  29183,  29101,
     28990,  28848,  28672,  28454,  28180,  27832,  27391,  26848,  26221,  25540,
     24831,  24119,  23411,  22709,  22016,  21331,  20644,  19938,  19200,  18421,
     17627,  16852,  16127,  15479,  14893,  14349,  13824,  13301,  12781,  12271,
     11776,  11299,  10842,  10404,   9984,   9584,   9223,   8922,   8704,   8578,
      8518,   8487,   8448,   8373,   8285,   8214,   8191,   8241,   8355,   8515,
      8704,   8906,   9109,   9301,   9472,   9613,   9736,   9854,   9984,  10136,
     10314,  10519,  10752,  11005,  11244,  11430,  11520,  11487,  11362,  11187,
     11007,  10857,  10731,  10615,  10496,  10359,  10193,   9986,   9728,   9409,
      9038,   8629,   8192,   7739,   7282,   6832,   6399,   5988,   5573,   5124,
      4608,   4005,   3349,   2682,   2048,   1479,    964,    479,      0,   -492,
     -1000,  -1519,  -2047,  -2580,  -3107,  -3616,  -4096,  -4532,  -4906,  -5194,
     -5375,  -5439,  -5426,  -5387,  -5375,  -5423,  -5483,  -5490,  -5375,  -5097,
     -4702,  -4259,  -3839,  -3490,  -3163,  -2791,  -2303,  -1654,   -883,    -54,
       767,   1539,   2281,   3035,   3839,   4721,   5645,   6562,   7424,   8194,
      8896,   9566,  10240,  10944,  11665,  12377,  13056,  13683,  14267,  14821,
     15359,  15889,  16385,  16816,  17151,  17371,  17502,  17587,  17663,  17757,
     17826,  17814,  17664,  17338,  16886,  16374,  15871,  15427,  15012,  14579,
     14080,  13479,  12792,  12045,  11264,  10473,   9688,   8923,   8191,   7499,
      6820,   6123,   5376,   4557,   3699,   2848,   2047,   1327,    651,    -30,
      -768,  -1590,  -2433,  -3212,  -3840,  -4258,  -4517,  -4693,  -4864,  -5087,
     -5352,  -5628,  -5888,  -6103,  -6265,  -6366,  -6399,  -6360,  -6256,  -6095,
     -5887,  -5644,  -5380,  -5114,  -4864,  -4638,  -4414,  -4158,  -3840,  -3437,
     -2979,  -2502,  -2048,  -1622,  -1109,   -362,    768,   3032,   4983,   6682
};

// PPG Wave 35
static const int16_t wt_bright_3[WT_SAMPLES_PER_WAVE] = {
         0,   5426,  10306,  14641,  18432,  21678,  24381,  26541,  28160,  29240,
     29800,  29860,  29440,  28570,  27328,  25797,  24064,  22211,  20311,  18431,
     16640,  14999,  13539,  12286,  11264,  10484,   9913,   9506,   9216,   9011,
      8916,   8972,   9216,   9666,  10258,  10905,  11520,  12038,  12481,  12891,
     13312,  13764,  14184,  14489,  14592,  14440,  14106,  13696,  13312,  13046,
     12939,  13018,  13312,  13823,  14456,  15094,  15616,  15945,  16177,  16448,
     16896,  17602,  18432,  19198,  19712,  19837,  19659,  19315,  18944,  18639,
     18321,  17867,  17151,  16096,  14797,  13395,  12031,  10810,   9688,   8586,
      7423,   6153,   4848,   3615,   2560,   1768,   1253,   1007,   1024,   1288,
      1754,   2366,   3071,   3817,   4562,   5265,   5888,   6392,   6748,   6931,
      6911,   6665,   6170,   5405,   4352,   3009,   1465,   -170,  -1791,  -3303,
     -4673,  -5882,  -6912,  -7749,  -8403,  -8887,  -9216,  -9397,  -9423,  -9282,
     -8960,  -8448,  -7757,  -6898,  -5887,  -4732,  -3420,  -1933,   -255,   1602,
      3517,   5337,   6911,   8119,   8966,   9489,   9727,   9715,   9481,   9050,
      8448,   7700,   6835,   5881,   4864,   3816,   2790,   1841,   1024,    387,
       -46,   -266,   -255,    -11,    436,   1050,   1792,   2623,   3515,   4442,
      5376,   6286,   7132,   7868,   8448,   8840,   9072,   9184,   9216,   9193,
      9087,   8853,   8447,   7840,   7057,   6137,   5120,   4043,   2939,   1837,
       767,   -239,  -1152,  -1936,  -2559,  -2997,  -3259,  -3363,  -3327,  -3173,
     -2930,  -2629,  -2304,  -1975,  -1628,  -1234,   -767,   -219,    354,    878,
      1279,   1509,   1618,   1687,   1792,   1994,   2290,   2656,   3072,   3515,
      3970,   4425,   4863,   5280,   5698,   6146,   6655,   7237,   7827,   8343,
      8704,   8846,   8785,   8555,   8192,   7713,   7079,   6234,   5120,   3702,
      2030,    175,  -1791,  -3807,  -5827,  -7813,  -9728, -11527, -13152, -14536,
    -15616, -16341, -16731, -16819, -16640, -16217, -15537, -14576, -13312, -11752,
    -10046,  -8372,  -6911,  -5738,  -4501,  -2741,      0,   5426,  10306,  14641
};

// PPG Wave 36
static const int16_t wt_bright_4[WT_SAMPLES_PER_WAVE] = {
         0,   4944,   9527,  13698,  17408,  20605,  23240,  25263,  26624,  27294,
     27335,  26828,  25856,  24500,  22843,  20964,  18944,  16858,  14763,  12710,
     10752,   8934,   7286,   5836,   4608,   3621,   2872,   2351,   2048,   1951,
      2053,   2345,   2816,   3451,   4207,   5036,   5888,   6716,   7484,   8157,
      8704,   9092,   9312,   9355,   9216,   8893,   8418,   7830,   7168,   6470,
      5782,   5146,   4607,   4199,   3909,   3711,   3584,   3510,   3509,   3610,
      3840,   4215,   4708,   5279,   5888,   6499,   7095,   7663,   8192,   8664,
      9054,   9333,   9472,   9448,   9264,   8927,   8447,   7838,   7137,   6387,
      5632,   4904,   4202,   3510,   2816,   2121,   1493,   1014,    768,    804,
      1055,   1417,   1791,   2099,   2350,   2577,   2815,   3082,   3336,   3522,
      3583,   3486,   3278,   3031,   2816,   2676,   2555,   2373,   2048,   1525,
       866,    157,   -511,  -1070,  -1508,  -1832,  -2048,  -2163,  -2191,  -2148,
     -2048,  -1900,  -1693,  -1406,  -1024,   -534,     35,    652,   1280,   1878,
      2382,   2718,   2815,   2636,   2275,   1865,   1536,   1381,   1347,   1343,
      1279,   1087,    783,    407,      0,   -401,   -768,  -1070,  -1279,  -1371,
     -1326,  -1130,   -768,   -236,    411,   1109,   1792,   2405,   2945,   3421,
      3839,   4202,   4477,   4626,   4607,   4399,   4038,   3578,   3072,   2562,
      2055,   1544,   1023,    497,     -3,   -438,   -767,   -959,  -1015,   -948,
      -767,   -487,   -124,    300,    768,   1260,   1769,   2289,   2816,   3338,
      3830,   4263,   4608,   4839,   4956,   4963,   4864,   4660,   4344,   3904,
      3327,   2621,   1857,   1124,    511,     89,   -157,   -261,   -255,   -166,
        20,    324,    768,   1359,   2059,   2818,   3584,   4317,   5021,   5711,
      6400,   7087,   7709,   8189,   8447,   8422,   8107,   7515,   6655,   5540,
      4179,   2585,    767,  -1251,  -3419,  -5668,  -7935, -10152, -12231, -14083,
    -15616, -16757, -17509, -17890, -17920, -17612, -16961, -15958, -14592, -12885,
    -10995,  -9112,  -7423,  -6021,  -4590,  -2721,      0,   4944,   9527,  13698
};

// PPG Wave 37
static const int16_t wt_bright_5[WT_SAMPLES_PER_WAVE] = {
       768,   2300,   3845,   5387,   6912,   8404,   9850,  11235,  12544,  13769,
     14928,  16047,  17152,  18259,  19362,  20448,  21503,  22517,  23492,  24432,
     25344,  26225,  27052,  27793,  28415,  28902,  29288,  29622,  29952,  30311,
     30673,  30994,  31232,  31354,  31378,  31328,  31232,  31109,  30950,  30740,
     30464,  30113,  29715,  29308,  28928,  28594,  28266,  27885,  27392,  26751,
     26017,  25266,  24576,  23999,  23503,  23031,  22528,  21949,  21311,  20641,
     19968,  19313,  18674,  18042,  17408,  16764,  16117,  15475,  14847,  14241,
     13655,  13090,  12544,  12014,  11499,  10994,  10495,  10004,   9531,   9092,
      8704,   8372,   8072,   7768,   7424,   7020,   6594,   6199,   5888,   5694,
      5582,   5494,   5376,   5184,   4933,   4647,   4351,   4069,   3803,   3556,
      3327,   3117,   2922,   2738,   2559,   2383,   2201,   2006,   1791,   1552,
      1295,   1030,    768,    514,    265,     11,   -256,   -544,   -854,  -1184,
     -1536,  -1901,  -2257,  -2572,  -2816,  -2972,  -3076,  -3178,  -3327,  -3561,
     -3868,  -4224,  -4608,  -4993,  -5354,  -5661,  -5888,  -6015,  -6073,  -6103,
     -6144,  -6227,  -6349,  -6497,  -6655,  -6813,  -6958,  -7080,  -7168,  -7213,
     -7223,  -7205,  -7168,  -7118,  -7059,  -6990,  -6912,  -6822,  -6713,  -6575,
     -6400,  -6180,  -5926,  -5653,  -5376,  -5105,  -4844,  -4593,  -4352,  -4117,
     -3877,  -3619,  -3328,  -2997,  -2652,  -2324,  -2047,  -1841,  -1673,  -1500,
     -1280,   -982,   -639,   -296,      0,    214,    357,    449,    511,    564,
       617,    682,    767,    881,   1012,   1149,   1280,   1391,   1476,   1527,
      1535,   1499,   1432,   1353,   1280,   1225,   1176,   1115,   1023,    892,
       742,    605,    511,    478,    462,    407,    256,    -26,   -385,   -743,
     -1024,  -1172,  -1226,  -1242,  -1280,  -1381,  -1526,  -1675,  -1792,  -1847,
     -1852,  -1826,  -1792,  -1764,  -1753,  -1760,  -1791,  -1844,  -1887,  -1882,
     -1791,  -1595,  -1351,  -1135,  -1024,  -1063,  -1185,  -1290,  -1280,  -1088,
      -785,   -473,   -256,   -185,   -120,    133,    768,   2300,   3845,   5387
};

// PPG Wave 38
static const int16_t wt_bright_6[WT_SAMPLES_PER_WAVE] = {
       768,   3789,   6726,   9563,  12288,  14884,  17337,  19634,  21760,  23698,
     25426,  26922,  28160,  29126,  29850,  30368,  30720,  30930,  30979,  30834,
     30464,  29851,  29048,  28120,  27136,  26146,  25147,  24118,  23040,  21901,
     20730,  19561,  18432,  17373,  16410,  15561,  14848,  14282,  13850,  13534,
     13312,  13169,  13113,  13156,  13312,  13584,  13951,  14382,  14848,  15316,
     15753,  16121,  16383,  16520,  16571,  16592,  16639,  16745,  16841,  16836,
     16640,  16187,  15520,  14709,  13824,  12918,  11989,  11017,   9984,   8873,
      7689,   6436,   5120,   3753,   2372,   1022,   -255,  -1431,  -2525,  -3572,
     -4608,  -5648,  -6640,  -7511,  -8191,  -8639,  -8930,  -9172,  -9472,  -9899,
    -10375, -10783, -11007, -10966, -10719, -10360,  -9984,  -9665,  -9402,  -9174,
     -8960,  -8744,  -8535,  -8346,  -8192,  -8081,  -8009,  -7964,  -7936,  -7916,
     -7907,  -7912,  -7936,  -7975,  -8007,  -8004,  -7935,  -7789,  -7613,  -7470,
     -7424,  -7509,  -7650,  -7742,  -7680,  -7391,  -6935,  -6403,  -5887,  -5457,
     -5087,  -4734,  -4352,  -3900,  -3368,  -2752,  -2048,  -1261,   -445,    337,
      1024,   1570,   2013,   2409,   2816,   3272,   3751,   4211,   4608,   4908,
      5123,   5272,   5375,   5448,   5481,   5462,   5375,   5213,   4981,   4690,
      4352,   3977,   3585,   3191,   2816,   2466,   2117,   1733,   1280,    735,
       135,   -467,  -1023,  -1495,  -1893,  -2240,  -2560,  -2872,  -3187,  -3507,
     -3839,  -4184,  -4525,  -4844,  -5119,  -5336,  -5493,  -5590,  -5631,  -5624,
     -5597,  -5588,  -5632,  -5749,  -5907,  -6054,  -6144,  -6140,  -6069,  -5971,
     -5888,  -5845,  -5816,  -5758,  -5632,  -5414,  -5162,  -4953,  -4864,  -4941,
     -5117,  -5294,  -5376,  -5292,  -5088,  -4835,  -4608,  -4461,  -4386,  -4358,
     -4352,  -4343,  -4311,  -4235,  -4096,  -3884,  -3647,  -3442,  -3328,  -3340,
     -3433,  -3537,  -3584,  -3523,  -3385,  -3218,  -3072,  -2980,  -2927,  -2882,
     -2816,  -2706,  -2568,  -2426,  -2303,  -2214,  -2127,  -2000,  -1791,  -1482,
     -1144,   -874,   -768,   -848,   -846,   -421,    768,   3789,   6726,   9563
};

// PPG Wave 39
static const int16_t wt_bright_7[WT_SAMPLES_PER_WAVE] = {
      1024,   3620,   6212,   8770,  11264,  13661,  15931,  18043,  19968,  21675,
     23149,  24377,  25344,  26040,  26477,  26666,  26624,  26361,  25885,  25203,
     24320,  23245,  22011,  20650,  19199,  17691,  16149,  14596,  13056,  11549,
     10096,   8715,   7424,   6242,   5192,   4298,   3584,   3061,   2700,   2461,
      2304,   2205,   2214,   2395,   2816,   3508,   4378,   5299,   6144,   6815,
      7341,   7781,   8192,   8621,   9069,   9527,   9984,  10423,  10811,  11105,
     11264,  11259,  11108,  10844,  10495,  10091,   9648,   9181,   8703,   8225,
      7735,   7217,   6656,   6049,   5456,   4951,   4608,   4477,   4519,   4669,
      4863,   5055,   5265,   5530,   5888,   6362,   6929,   7551,   8191,   8821,
      9447,  10085,  10752,  11450,  12143,  12780,  13312,  13703,  13979,  14177,
     14336,  14478,  14563,  14534,  14335,  13926,  13334,  12603,  11775,  10889,
      9953,   8968,   7935,   6861,   5762,   4663,   3584,   2545,   1554,    619,
      -255,  -1061,  -1774,  -2367,  -2816,  -3099,  -3226,  -3211,  -3071,  -2821,
     -2473,  -2041,  -1536,   -970,   -350,    315,   1024,   1766,   2533,   3313,
      4096,   4867,   5609,   6297,   6911,   7429,   7829,   8090,   8192,   8121,
      7904,   7575,   7168,   6708,   6184,   5576,   4864,   4037,   3133,   2198,
      1279,    412,   -414,  -1227,  -2047,  -2889,  -3713,  -4473,  -5120,  -5612,
     -5945,  -6121,  -6143,  -6017,  -5753,  -5364,  -4863,  -4265,  -3585,  -2840,
     -2047,  -1216,   -321,    670,   1792,   3060,   4424,   5816,   7168,   8423,
      9568,  10601,  11520,  12323,  13014,  13598,  14079,  14464,  14759,  14969,
     15103,  15161,  15117,  14938,  14591,  14059,  13378,  12599,  11775,  10944,
     10089,   9181,   8191,   7102,   5943,   4756,   3583,   2461,   1400,    407,
      -512,  -1351,  -2104,  -2765,  -3328,  -3792,  -4183,  -4530,  -4864,  -5201,
     -5513,  -5756,  -5887,  -5879,  -5761,  -5579,  -5375,  -5187,  -5006,  -4819,
     -4608,  -4363,  -4098,  -3832,  -3583,  -3363,  -3143,  -2887,  -2560,  -2143,
     -1696,  -1297,  -1024,   -895,   -694,   -146,   1024,   3620,   6212,   8770
};

// ============================================================================
// BANK 5: HARSH
// ============================================================================

// PPG Wave 40
static const int16_t wt_harsh_0[WT_SAMPLES_PER_WAVE] = {
       768,   2751,   4794,   6872,   8960,  11031,  13061,  15024,  16896,  18651,
     20272,  21740,  23040,  24162,  25145,  26035,  26880,  27709,  28489,  29168,
     29695,  30031,  30177,  30146,  29952,  29608,  29137,  28561,  27904,  27181,
     26391,  25525,  24576,  23536,  22415,  21222,  19968,  18663,  17322,  15960,
     14592,  13230,  11879,  10540,   9216,   7907,   6617,   5346,   4096,   2870,
      1684,    551,   -512,  -1491,  -2377,  -3163,  -3839,  -4404,  -4876,  -5277,
     -5632,  -5952,  -6212,  -6373,  -6399,  -6268,  -6018,  -5703,  -5375,  -5076,
     -4785,  -4470,  -4095,  -3637,  -3094,  -2476,  -1791,  -1050,   -275,    509,
      1279,   2016,   2724,   3413,   4096,   4776,   5442,   6074,   6656,   7172,
      7634,   8054,   8448,   8823,   9171,   9478,   9727,   9912,  10046,  10149,
     10239,  10333,  10417,  10477,  10496,  10459,  10362,  10204,   9984,   9706,
      9412,   9147,   8960,   8877,   8852,   8817,   8704,   8469,   8168,   7879,
      7679,   7623,   7656,   7701,   7680,   7541,   7349,   7194,   7168,   7330,
      7618,   7937,   8191,   8315,   8351,   8372,   8448,   8630,   8893,   9189,
      9472,   9704,   9897,  10069,  10240,  10425,  10620,  10818,  11007,  11177,
     11298,  11338,  11264,  11059,  10776,  10480,  10240,  10099,  10012,   9911,
      9728,   9415,   9013,   8585,   8191,   7871,   7564,   7186,   6655,   5919,
      5049,   4151,   3328,   2655,   2093,   1572,   1023,    394,   -304,  -1042,
     -1792,  -2523,  -3211,  -3829,  -4352,  -4762,  -5088,  -5366,  -5632,  -5912,
     -6193,  -6449,  -6656,  -6790,  -6840,  -6799,  -6655,  -6406,  -6058,  -5625,
     -5119,  -4552,  -3931,  -3265,  -2559,  -1823,  -1061,   -281,    512,   1314,
      2130,   2970,   3840,   4742,   5658,   6561,   7424,   8229,   8994,   9741,
     10496,  11273,  12059,  12831,  13567,  14249,  14864,  15408,  15871,  16250,
     16545,  16759,  16896,  16956,  16936,  16833,  16640,  16356,  15994,  15571,
     15104,  14599,  14029,  13356,  12544,  11575,  10513,   9443,   8448,   7576,
      6733,   5787,   4607,   3154,   1753,    818,    768,   2751,   4794,   6872
};

// PPG Wave 41
static const int16_t wt_harsh_1[WT_SAMPLES_PER_WAVE] = {
       512,   2002,   3330,   4529,   5631,   6670,   7677,   8685,   9728,  10824,
     11944,  13044,  14080,  15019,  15872,  16661,  17408,  18127,  18806,  19426,
     19968,  20416,  20774,  21048,  21248,  21380,  21457,  21494,  21504,  21495,
     21459,  21381,  21248,  21049,  20799,  20517,  20223,  19927,  19599,  19199,
     18688,  18044,  17316,  16570,  15872,  15267,  14719,  14172,  13568,  12866,
     12092,  11288,  10496,   9747,   9037,   8353,   7680,   7008,   6347,   5713,
      5120,   4576,   4067,   3573,   3071,   2550,   2021,   1506,   1023,    589,
       197,   -165,   -511,   -850,  -1179,  -1494,  -1791,  -2064,  -2296,  -2467,
     -2559,  -2566,  -2531,  -2510,  -2560,  -2712,  -2905,  -3054,  -3071,  -2903,
     -2612,  -2296,  -2048,  -1938,  -1938,  -1993,  -2047,  -2057,  -2015,  -1926,
     -1792,  -1619,  -1422,  -1218,  -1024,   -853,   -711,   -597,   -512,   -453,
      -404,   -345,   -256,   -125,     23,    161,    255,    287,    276,    255,
       255,    300,    373,    451,    512,    536,    534,    520,    512,    518,
       530,    533,    512,    458,    384,    310,    255,    233,    235,    247,
       255,    247,    210,    132,      0,   -189,   -405,   -611,   -768,   -850,
      -891,   -933,  -1024,  -1191,  -1405,  -1621,  -1792,  -1887,  -1934,  -1974,
     -2047,  -2182,  -2344,  -2486,  -2559,  -2534,  -2446,  -2351,  -2303,  -2340,
     -2428,  -2517,  -2560,  -2516,  -2400,  -2236,  -2048,  -1856,  -1664,  -1472,
     -1280,  -1082,   -860,   -592,   -255,    161,    627,   1099,   1536,   1909,
      2255,   2626,   3072,   3628,   4268,   4950,   5631,   6280,   6908,   7538,
      8192,   8884,   9600,  10316,  11008,  11659,  12287,  12915,  13568,  14259,
     14975,  15691,  16383,  17032,  17633,  18185,  18687,  19141,  19547,  19907,
     20224,  20496,  20719,  20886,  20991,  21033,  21030,  21008,  20992,  20995,
     20983,  20912,  20736,  20422,  19995,  19490,  18943,  18382,  17787,  17131,
     16383,  15527,  14581,  13577,  12544,  11507,  10476,   9455,   8448,   7449,
      6422,   5319,   4096,   2758,   1530,    688,    512,   2002,   3330,   4529
};

// PPG Wave 42
static const int16_t wt_harsh_2[WT_SAMPLES_PER_WAVE] = {
       512,   1433,   2287,   3085,   3840,   4562,   5264,   5958,   6656,   7364,
      8077,   8783,   9472,  10134,  10776,  11406,  12032,  12661,  13297,  13940,
     14591,  15251,  15907,  16545,  17152,  17716,  18241,  18733,  19200,  19647,
     20088,  20532,  20992,  21472,  21950,  22397,  22784,  23090,  23341,  23569,
     23808,  24079,  24363,  24624,  24832,  24965,  25061,  25170,  25344,  25611,
     25919,  26196,  26367,  26386,  26300,  26184,  26112,  26136,  26224,  26319,
     26368,  26327,  26211,  26045,  25856,  25664,  25473,  25281,  25088,  24891,
     24694,  24503,  24319,  24146,  23971,  23778,  23551,  23281,  22972,  22632,
     22272,  21897,  21514,  21126,  20736,  20346,  19960,  19577,  19200,  18827,
     18452,  18067,  17664,  17235,  16788,  16331,  15871,  15417,  14968,  14523,
     14080,  13636,  13191,  12742,  12288,  11827,  11368,  10921,  10496,  10098,
      9719,   9344,   8960,   8558,   8154,   7769,   7424,   7128,   6848,   6535,
      6144,   5646,   5093,   4553,   4096,   3767,   3529,   3317,   3072,   2745,
      2357,   1942,   1535,   1166,    833,    532,    256,     -2,   -252,   -504,
      -767,  -1048,  -1327,  -1582,  -1792,  -1940,  -2053,  -2163,  -2304,  -2500,
     -2745,  -3026,  -3327,  -3634,  -3923,  -4170,  -4351,  -4453,  -4504,  -4542,
     -4607,  -4726,  -4875,  -5018,  -5120,  -5155,  -5145,  -5122,  -5120,  -5160,
     -5230,  -5309,  -5376,  -5412,  -5420,  -5406,  -5375,  -5337,  -5310,  -5315,
     -5376,  -5501,  -5658,  -5801,  -5887,  -5885,  -5817,  -5720,  -5632,  -5581,
     -5569,  -5588,  -5632,  -5689,  -5730,  -5722,  -5631,  -5442,  -5204,  -4989,
     -4864,  -4874,  -4969,  -5076,  -5119,  -5048,  -4899,  -4733,  -4607,  -4566,
     -4582,  -4611,  -4608,  -4539,  -4417,  -4262,  -4096,  -3937,  -3796,  -3676,
     -3584,  -3520,  -3469,  -3412,  -3328,  -3204,  -3060,  -2921,  -2815,  -2758,
     -2721,  -2668,  -2560,  -2374,  -2149,  -1937,  -1791,  -1747,  -1768,  -1801,
     -1791,  -1703,  -1561,  -1406,  -1280,  -1210,  -1171,  -1122,  -1023,   -850,
      -633,   -419,   -256,   -164,    -70,    122,    512,   1433,   2287,   3085
};

// PPG Wave 43
static const int16_t wt_harsh_3[WT_SAMPLES_PER_WAVE] = {
       768,   2238,   3765,   5329,   6912,   8494,  10058,  11585,  13055,  14455,
     15776,  17018,  18176,  19249,  20242,  21162,  22015,  22808,  23541,  24216,
     24831,  25392,  25910,  26401,  26880,  27348,  27759,  28050,  28160,  28051,
     27787,  27453,  27136,  26900,  26723,  26561,  26368,  26106,  25765,  25341,
     24832,  24238,  23590,  22923,  22272,  21662,  21086,  20527,  19968,  19394,
     18813,  18233,  17664,  17113,  16587,  16086,  15616,  15173,  14741,  14298,
     13824,  13304,  12766,  12245,  11775,  11384,  11056,  10768,  10496,  10221,
